{"version": "0.5.2", "metadata": {"date": {"year": 2024, "month": 7, "day": 13, "hour": 5, "minute": 43, "second": 9}, "loudness": -18.075958251953125, "gain": 0.7350252004730581, "name": "Obi-Juan DC-5", "modeled_by": "Obi-Juan", "gear_type": "pedal_amp", "gear_make": "Mesa", "gear_model": "Dc-5", "tone_type": "hi_gain"}, "architecture": "WaveNet", "config": {"layers": [{"input_size": 1, "condition_size": 1, "head_size": 8, "channels": 16, "kernel_size": 3, "dilations": [1, 2, 4, 8, 16, 32, 64, 128, 256, 512], "activation": "Tanh", "gated": false, "head_bias": false}, {"input_size": 16, "condition_size": 1, "head_size": 1, "channels": 8, "kernel_size": 3, "dilations": [1, 2, 4, 8, 16, 32, 64, 128, 256, 512], "activation": "Tanh", "gated": false, "head_bias": true}], "head": null, "head_scale": 0.02}, "weights": [-0.003097825450822711, 0.22871819138526917, -0.742353081703186, -0.5818302035331726, -0.2517920732498169, -0.0012764212442561984, 0.01791253127157688, 0.7332628965377808, -0.08646277338266373, 0.0022541938815265894, -0.25927308201789856, 0.008636165410280228, -0.7341197729110718, -0.6433922648429871, -0.11105556041002274, 0.12142353504896164, 0.31244441866874695, 0.17195311188697815, -0.023533286526799202, 0.013043476268649101, 0.042293015867471695, 0.08789552003145218, -0.11715871840715408, 0.10653340071439743, 0.007323188241571188, -0.06785891205072403, 0.1337112933397293, -0.10156398266553879, -0.1634705662727356, -0.028642302379012108, -0.022644244134426117, 0.21302755177021027, -0.0105258384719491, 0.014525900594890118, -0.014051390811800957, 0.05487681180238724, 0.11671215295791626, 0.2091383934020996, 0.06262687593698502, 0.036369647830724716, -0.03954239562153816, -0.03412516042590141, 0.10247515887022018, -0.08135217428207397, -0.13383525609970093, -0.13608412444591522, 0.019931631162762642, 0.10123971104621887, -0.013804642483592033, 0.053296685218811035, 0.1135847419500351, 0.06996794044971466, -0.028886141255497932, 0.018706554546952248, 0.12411466985940933, -0.16814137995243073, 0.03024180233478546, -0.07727032154798508, -0.1665257066488266, -0.057972002774477005, 0.11117972433567047, 0.12388435006141663, -0.1353294998407364, -0.057596080005168915, -0.08269712328910828, -0.19277086853981018, -0.12598605453968048, -0.046916745603084564, -0.03708751127123833, 0.2596680223941803, -0.018473448231816292, 0.08958275616168976, -0.07021681219339371, 0.2069145143032074, 0.26141536235809326, 0.0027299323119223118, 0.10718199610710144, 0.006530935876071453, -0.10435052961111069, -0.17403459548950195, -0.16078470647335052, 0.24189172685146332, 0.052198588848114014, -0.1907689869403839, -0.08987738192081451, -0.11433753371238708, -0.1626681685447693, 0.061364009976387024, 0.10726062208414078, 0.014671816490590572, -0.10650665313005447, 0.011416414752602577, 0.012223931029438972, 0.19584767520427704, -0.06971345096826553, 0.024587340652942657, -0.06965281069278717, 0.11705273389816284, -0.08246420323848724, -0.029484713450074196, 0.2269965559244156, 0.23810581862926483, -0.18287503719329834, 0.05111048370599747, 0.0002452792541589588, -0.12915752828121185, -0.037319622933864594, 0.0035025780089199543, -0.14082928001880646, -0.058382801711559296, -0.15678676962852478, 0.27807673811912537, -0.06142806261777878, 0.05757015570998192, -0.027408897876739502, -0.08825256675481796, 0.007534338627010584, -0.07831765711307526, -0.021940723061561584, -0.02324063703417778, 0.14348529279232025, -0.029128745198249817, -0.12022586911916733, 0.15701889991760254, -0.1663428097963333, -0.12794587016105652, 0.05306338891386986, -0.02314925380051136, -0.0544021800160408, -0.18903028964996338, -0.04250210523605347, -0.004225205630064011, -0.0931626632809639, 0.0330161415040493, 0.1569124013185501, -0.1039290800690651, 0.0018088785000145435, -0.023524519056081772, 0.17637357115745544, 0.10048053413629532, 0.1379406601190567, -0.039657894521951675, 0.10932455211877823, -0.04800107702612877, -0.021638549864292145, -0.12110307067632675, 0.11031261831521988, -0.04521395266056061, -0.1133473664522171, -0.16577546298503876, -0.05402370169758797, -0.16017629206180573, -0.08120204508304596, 0.16909529268741608, 0.04977257549762726, -0.1770859956741333, 0.18878278136253357, -0.08622747659683228, -0.01087507139891386, -0.22939744591712952, -0.04548973590135574, 0.033117085695266724, -0.02985307201743126, -0.16755950450897217, -0.03178597614169121, 0.016792943701148033, -0.01393042504787445, 0.07356523722410202, -0.14604170620441437, 0.037879351526498795, 0.14158181846141815, -0.07635252177715302, 0.16703586280345917, 0.05755963921546936, -0.154460147023201, 0.011093687266111374, -0.0019748597405850887, -0.06157837435603142, 0.042781852185726166, -0.20816831290721893, -0.05884981527924538, -0.07998110353946686, 0.08634639531373978, 0.058332499116659164, 0.08881203830242157, 0.03714856877923012, -0.09723248332738876, -0.055436477065086365, -0.09557043761014938, 0.13636815547943115, 0.15258358418941498, 0.10118164122104645, -0.1398897022008896, 0.06991449743509293, -0.1215546652674675, 0.029721196740865707, -0.03370805084705353, 0.06736228615045547, -0.09751434624195099, 0.04431837424635887, 0.02099694311618805, 0.07373297959566116, -0.06892023980617523, -0.0916590541601181, -0.10994918644428253, 0.059782594442367554, -0.04039070010185242, 0.19937509298324585, -0.05631782114505768, -0.2421281635761261, -0.27889761328697205, 0.026222024112939835, 0.1422194540500641, -0.0784282386302948, -0.06996915489435196, -0.1260930299758911, -0.05486584082245827, -0.13890224695205688, -0.019570615142583847, -0.0643620491027832, -0.0664198249578476, 0.005871559958904982, 0.10080625861883163, 0.026947835460305214, -0.1103006973862648, 0.02100333943963051, 0.07200409471988678, 0.1296999454498291, 0.14914081990718842, 0.04666277393698692, 0.1447155475616455, 0.06389626115560532, -0.0224902406334877, 0.005602065473794937, 0.17707103490829468, -0.051403459161520004, 0.15985830128192902, -0.17716988921165466, -0.11461526155471802, -0.08488059788942337, 0.11896989494562149, 0.01892106607556343, -0.08559458702802658, -0.09992767125368118, 0.006399075035005808, -0.28189918398857117, 0.15139247477054596, -0.18307092785835266, -0.13836880028247833, 0.031658098101615906, -0.1312536597251892, -0.1066245511174202, 0.1800834685564041, 0.01874670200049877, 0.021891040727496147, -0.19038046896457672, -0.1196594387292862, 0.08419360220432281, -0.07335364073514938, -0.14009013772010803, -0.012105287984013557, 0.06057282164692879, 0.11327021569013596, 0.02799481712281704, 0.07909711450338364, -0.00719209061935544, -0.11731559038162231, 0.06925877928733826, 0.16691431403160095, -0.03237396478652954, -0.043245017528533936, -0.0714215561747551, -0.10771036148071289, 0.03486458584666252, -0.0007363734184764326, -0.10706522315740585, 0.13898484408855438, -0.1329268515110016, 0.06316795945167542, 0.013485033996403217, 0.08175846934318542, -0.13949446380138397, -0.04071952402591705, 0.05363282561302185, 0.05548032373189926, 0.05798668414354324, 0.002665016334503889, -0.021593401208519936, 0.012312113307416439, 0.02033417671918869, -0.01164424978196621, 0.06760942935943604, 0.08325343579053879, -0.08418214321136475, -0.012334420345723629, -0.04783868417143822, 0.020955992862582207, -0.08016469329595566, 0.10634572803974152, -0.11436940729618073, -0.03398647531867027, -0.023996712639927864, -0.023065119981765747, -0.06485019624233246, -0.08257544785737991, -0.11829885840415955, -0.0128817493095994, -0.005733403842896223, 0.11468560248613358, -0.11056777834892273, -0.059023257344961166, -0.09125742316246033, 0.14717447757720947, 0.01250586286187172, -0.00616449723020196, 0.19530487060546875, -0.002755702007561922, -0.055036332458257675, 0.1544044464826584, -0.03730600327253342, -0.03673169016838074, -0.10942618548870087, -0.11359735578298569, -0.14930090308189392, -0.046518515795469284, 0.06754496693611145, 0.1487014889717102, -0.08091839402914047, 0.16600064933300018, -0.10118118673563004, 0.021835163235664368, -0.21266601979732513, 0.1574016958475113, -0.04347812756896019, -0.028140146285295486, 0.003746254136785865, 0.22031471133232117, 0.13466420769691467, 0.15584231913089752, 0.10543356090784073, 0.028578443452715874, -0.11564068496227264, 0.2113959938287735, 0.1445814073085785, -0.15172389149665833, 0.22734758257865906, 0.14122247695922852, 0.025291217491030693, 0.010284650139510632, -0.01669023558497429, 0.0015417297836393118, -0.0319027341902256, 0.07607488334178925, 0.18769459426403046, 0.1899825632572174, 0.011266408488154411, 0.06562794744968414, 0.1683707982301712, -0.05525799095630646, -0.09505873918533325, -0.19525033235549927, -0.09367700666189194, -0.23720845580101013, 0.017098329961299896, 0.13267935812473297, 0.01769169047474861, 0.020771408453583717, -0.1562790423631668, -0.013842892833054066, 0.09676983207464218, 0.0065977917984128, 0.13038979470729828, -0.14934782683849335, -0.11792226135730743, -0.014930195175111294, 0.014524931088089943, 0.20457419753074646, 0.02863030694425106, 0.04575193300843239, 0.04667945206165314, 0.20264124870300293, 0.028364771977066994, 0.12317556142807007, 0.018887488171458244, -0.03048364818096161, 0.11630918830633163, 0.03304300457239151, 0.0038658406119793653, -0.006054125726222992, -0.05735039710998535, -0.08640410751104355, 0.014335389249026775, -0.20571082830429077, -0.17810581624507904, -0.05998026207089424, -0.017366956919431686, 0.016224179416894913, -0.09400517493486404, 0.0018771992763504386, 0.13633833825588226, 0.1145920678973198, 0.04103769361972809, -0.04493098333477974, 0.20057427883148193, 0.12163300812244415, -0.1637689471244812, 0.06293492019176483, 0.03886745125055313, 0.00741653423756361, 0.010473070666193962, -0.14719080924987793, 0.03728406876325607, 0.06248592212796211, -0.050793226808309555, -0.042051564902067184, 0.019462037831544876, -0.07547871768474579, -0.14053766429424286, -0.0989273339509964, -0.05813901871442795, -0.1678038388490677, -0.016414396464824677, 0.07423015683889389, 0.007390845101326704, 0.0351053848862648, -0.15961983799934387, 0.08799588680267334, -0.06029931828379631, -0.03695676475763321, -0.04306887462735176, -0.1647161990404129, 8.39927452034317e-05, 0.1984180063009262, -0.07291596382856369, -0.05958040431141853, -0.04091236740350723, -0.04209302365779877, -0.1788204163312912, 0.12560983002185822, -0.20258484780788422, -0.20565135776996613, -0.07956557720899582, -0.08815797418355942, 0.045412659645080566, -0.06530677527189255, 0.18912607431411743, -0.010117260739207268, -0.07911016047000885, 0.1586504429578781, 0.055300064384937286, 0.2358253300189972, 0.06369657069444656, 0.27098655700683594, 0.021733634173870087, -0.09445849061012268, -0.031210720539093018, 0.06528263539075851, 0.07368478924036026, -0.2591365873813629, 0.012187866494059563, -0.13133591413497925, -0.1996171921491623, 0.07909511774778366, -0.10399889200925827, 0.1546657532453537, 0.10122709721326828, 0.15570591390132904, -0.02761215902864933, 0.049452733248472214, -0.04589582607150078, 0.21397410333156586, 0.08735759556293488, 0.11746055632829666, -0.14466510713100433, 0.14257816970348358, -0.17174959182739258, -0.02314145490527153, -0.014683054760098457, -0.068848617374897, -0.0679556205868721, -0.029218869283795357, -0.024623200297355652, -0.07902996987104416, 0.07720839977264404, -0.012959546409547329, -0.03712311387062073, 0.13685736060142517, 0.08469763398170471, -0.14368748664855957, 0.011178236454725266, -0.021320106461644173, -0.11823734641075134, 0.13017770648002625, -0.10001889616250992, 0.26023951172828674, -0.13306082785129547, -0.046682208776474, -0.1248209998011589, 0.10807005316019058, 0.31683969497680664, -0.28533750772476196, 0.05251072719693184, -0.1076093316078186, 0.25038981437683105, 0.1671670824289322, -0.2603507339954376, 0.2055407464504242, 0.10618656873703003, -0.22664102911949158, 0.20791229605674744, 0.012351254932582378, 0.2027123123407364, -0.16612374782562256, -0.13487902283668518, -0.05652612820267677, 0.20217950642108917, 0.021017013117671013, 0.19293032586574554, -0.08157750219106674, -0.06197667866945267, -0.1662418693304062, 0.10568397492170334, 0.061500340700149536, 0.08862461149692535, -0.20295435190200806, -0.08591490238904953, -0.052979953587055206, 0.11815391480922699, 0.0381278358399868, -0.19808271527290344, 0.07329884171485901, 0.008739973418414593, -0.28861597180366516, 0.046773578971624374, -0.05705834552645683, -0.1830655038356781, 0.12774735689163208, -0.046279340982437134, -0.23208612203598022, 0.18017776310443878, -0.034114815294742584, 0.1984851360321045, -0.19361397624015808, -0.08877445012331009, -0.040410254150629044, 0.1768890768289566, -0.0028355505783110857, -0.13782347738742828, -0.10234568268060684, 0.17515070736408234, 0.019748428836464882, -0.07669120281934738, 0.10323181003332138, 0.05769694969058037, 0.0804983451962471, -0.052668940275907516, 0.10621286183595657, 0.013354558497667313, 0.04986289516091347, -0.11059913784265518, -0.11484383791685104, -0.011618579737842083, 0.043542373925447464, 0.12214881926774979, -0.09668520838022232, -0.01648622564971447, -0.08779948204755783, 0.015902990475296974, 0.23066115379333496, 0.09331230819225311, 0.030954787507653236, -0.035291921347379684, -0.055491652339696884, -0.01668388769030571, 0.1286781132221222, 0.1604505479335785, -0.1064852625131607, 0.02355530671775341, 0.1244267001748085, 0.29286283254623413, 0.11193722486495972, -0.061904750764369965, -0.1645248681306839, 0.18698753416538239, 0.04416526481509209, -0.1144404336810112, 0.1651768535375595, 0.09791702032089233, 0.06277257949113846, -0.031413666903972626, -0.04157617688179016, -0.005979630164802074, -0.15018543601036072, -0.042645614594221115, -0.10177717357873917, -0.03493697568774223, -0.03786283731460571, 0.12011857330799103, 0.24079535901546478, 0.033738818019628525, -0.11365627497434616, 0.04674404859542847, -0.19133663177490234, 0.14784491062164307, 0.03564881533384323, -0.1592784821987152, 0.08148293197154999, -0.09797804057598114, 0.04893827438354492, 0.04882724955677986, -0.048785895109176636, -0.14109712839126587, 0.0729852244257927, -0.1681552231311798, 0.14642930030822754, 0.11533325910568237, 0.16247890889644623, -0.07423551380634308, 0.12406585365533829, -0.09173209965229034, -0.012924985028803349, 0.10182885080575943, 0.14073678851127625, -0.22868724167346954, -0.024335158988833427, -0.14311614632606506, 0.08375588804483414, 0.06783057004213333, -0.03138460963964462, -0.10566060245037079, 0.09868393838405609, 0.1412077695131302, -0.04844352602958679, 0.024543024599552155, 0.1330147385597229, -0.1329433023929596, -0.05752769485116005, -0.25813424587249756, -0.04177427291870117, 0.027699390426278114, -0.025757094845175743, 0.0870903953909874, 0.1766619086265564, 0.041377145797014236, -0.13000348210334778, 0.13526417315006256, -0.10984206944704056, 0.1616050899028778, -0.11336252093315125, -0.06393066048622131, 0.1174209862947464, -0.058548375964164734, 0.08473769575357437, -0.06781250983476639, -0.12368448823690414, -0.0692417323589325, 0.00791187584400177, 0.14297854900360107, -0.11583781987428665, 0.12912537157535553, 0.09431364387273788, -0.00367969973012805, 0.06575328856706619, -0.11214390397071838, -0.04353773593902588, 0.1444448083639145, -0.06325355172157288, 0.15538693964481354, -0.05515529587864876, 0.14636221528053284, -0.17513303458690643, 0.008478403091430664, -0.03836556524038315, -0.0024313186295330524, -0.07659496366977692, -0.10997764766216278, -0.048084571957588196, 0.03622892498970032, 0.10436129570007324, -0.06761875003576279, 0.1668902039527893, -0.09493838995695114, -0.05019517242908478, 0.022713344544172287, 0.05539248138666153, 0.12734675407409668, -0.05527947470545769, -0.08438140153884888, 0.1403573900461197, -0.16898620128631592, -0.11541127413511276, -0.015071356669068336, 0.03476673364639282, 0.11270185559988022, -0.0706954374909401, -0.08197560906410217, 0.12452170252799988, -0.1873732954263687, 0.08840072154998779, 0.04471853747963905, -0.13537700474262238, 0.10953380912542343, -0.10425888001918793, 0.007057353388518095, -0.08581145852804184, -0.016396259889006615, -0.010223631747066975, 0.14053650200366974, -0.04350887984037399, 0.17365555465221405, -0.07290282845497131, -0.09217871725559235, -0.18801382184028625, -0.06339982151985168, 0.18392488360404968, 0.010566744022071362, -0.04560059681534767, 0.006186504848301411, 0.030906811356544495, 0.1884147673845291, 0.15024223923683167, -0.024517899379134178, -0.035725630819797516, -0.10913876444101334, -0.16491705179214478, 0.08700010180473328, 0.15656974911689758, -0.19467343389987946, 0.14375849068164825, -0.049517806619405746, -0.08887335658073425, 0.1821184754371643, 0.005166800692677498, 0.0698763057589531, -0.19149048626422882, 0.05618276074528694, -0.10053027421236038, 0.08982697129249573, 0.22544409334659576, -0.2254006415605545, -0.15806594491004944, -0.04078551381826401, 0.2502860724925995, 0.017777908593416214, 0.11537861078977585, 0.25338441133499146, 0.14665833115577698, -0.028623878955841064, 0.10201580077409744, -0.002155878348276019, -0.07217530161142349, -0.11209239810705185, 0.08491580933332443, 0.06280433386564255, 0.0720997154712677, -0.0037543163634836674, -0.10153327137231827, -0.02391434833407402, -0.1151752844452858, -0.1471652090549469, 0.12499414384365082, 0.10490993410348892, -0.12455390393733978, 0.03499586507678032, 0.048350077122449875, -0.10331282019615173, 0.08607074618339539, 0.16057975590229034, -0.08462350815534592, 0.07552014291286469, 0.11251547932624817, 0.07136710733175278, 0.21249382197856903, 0.13212217390537262, 0.14299820363521576, 0.03835170716047287, 0.19645407795906067, -0.03988207131624222, 0.26266908645629883, -0.10109259188175201, -0.09888500720262527, -0.03062862530350685, 0.012024665251374245, 0.03883255273103714, -0.07244963943958282, -0.12383844703435898, 0.04515005275607109, -0.12625117599964142, 0.03776685521006584, 0.07447401434183121, 0.12677422165870667, 0.006772435270249844, 0.2069852352142334, 0.07639840990304947, 0.014376961626112461, -0.10433387756347656, -0.03444920480251312, -0.07096121460199356, 0.0013562248786911368, 0.012846078723669052, 0.4203832149505615, -0.30581942200660706, 0.7190240621566772, -0.694841206073761, -0.048012539744377136, 0.8809348940849304, 0.9038069248199463, -0.47286272048950195, 0.12646494805812836, 0.06948111951351166, -0.5220310688018799, -0.3136700689792633, 0.26155754923820496, -0.7052744030952454, 0.14465884864330292, 0.3768801987171173, -0.08724289387464523, 0.14734004437923431, -0.0129051199182868, 0.030303116887807846, 0.1996309906244278, -0.025027897208929062, 0.0766642838716507, -0.13255575299263, -0.025879019871354103, 0.021626777946949005, 0.04887261986732483, -0.0427623875439167, 0.054253607988357544, -0.006628441158682108, -0.02339390106499195, -0.05696522071957588, -0.0017775438027456403, 0.040622878819704056, -0.18526244163513184, 0.26227301359176636, 0.05700816959142685, -0.2091381996870041, -0.14639312028884888, 0.2594556212425232, -0.16023898124694824, 0.12444937974214554, -0.07050953805446625, 0.1779118925333023, 0.19479241967201233, -0.05169475078582764, 0.013145207427442074, 0.11227688193321228, 0.029004642739892006, 0.07040222734212875, -0.003316671820357442, 0.1812172830104828, -0.10275782644748688, -0.17925022542476654, 0.07795612514019012, 0.019678980112075806, 0.0013066943502053618, -0.12613330781459808, 0.20511925220489502, -0.22941496968269348, 0.1266051083803177, 0.2533114552497864, 0.12390457838773727, -0.05950668826699257, 0.21099711954593658, -0.17783619463443756, 0.07352232933044434, -0.13310226798057556, 0.08029910176992416, -0.008176993578672409, 0.08996422588825226, -0.02909841388463974, -0.14331398904323578, 0.05161440372467041, 0.04791925475001335, -0.09966528415679932, 0.05014409124851227, 0.22059540450572968, -0.07901439815759659, -0.10553041100502014, -0.30266934633255005, -0.26783880591392517, -0.17541071772575378, 0.23311829566955566, 0.22441570460796356, 0.05805711820721626, 0.1841050237417221, -0.05711481720209122, 0.17846500873565674, 0.32639244198799133, -0.37125492095947266, 0.1290036290884018, -0.09465483576059341, 0.035236656665802, -0.2645567059516907, 0.034949056804180145, -0.2963537573814392, -0.20106476545333862, 0.06350062787532806, -0.057773295789957047, 0.2664782404899597, 0.23288823664188385, 0.27382412552833557, 0.04745740815997124, 0.3324090838432312, 0.04703667759895325, -0.12976717948913574, -0.16909822821617126, -0.07138893753290176, -0.14077723026275635, 0.045411400496959686, 0.03678293526172638, -0.08680638670921326, 0.15912361443042755, 0.10765255242586136, 0.15608324110507965, -0.3366898000240326, -0.1600533276796341, 0.02785336598753929, -0.0475434847176075, 0.016328172758221626, -0.30898645520210266, -0.32100772857666016, 0.24582916498184204, 0.2762450873851776, -0.19730578362941742, -0.13106293976306915, 0.08221622556447983, 0.19949084520339966, 0.04312628135085106, 0.20735543966293335, -0.27609676122665405, -0.20279362797737122, 0.2143826186656952, 0.1849515587091446, 0.03789640590548515, 0.15788963437080383, -0.19210834801197052, 0.16945940256118774, -0.2611744701862335, 0.02847203053534031, -0.1510152369737625, -0.10981708019971848, 0.05150911957025528, -0.18927747011184692, 0.19698874652385712, -0.40707656741142273, -0.02372213639318943, -0.12883028388023376, -0.2919892966747284, -0.33149483799934387, -0.027435438707470894, -0.3770267367362976, -0.41065144538879395, 0.2892332971096039, 0.31295302510261536, 0.003961785696446896, 0.012293689884245396, 0.023343699052929878, 0.18241183459758759, -0.21500802040100098, 0.018946433439850807, 0.2150823175907135, -0.18672548234462738, -0.16555127501487732, -0.019621819257736206, 0.16049210727214813, -0.0922965332865715, 0.008417355827987194, 0.22325316071510315, 0.06582189351320267, 0.14422719180583954, 0.2038460075855255, 0.1773684322834015, -0.2246379405260086, -0.013008304871618748, 0.0216252151876688, 0.3220544755458832, -0.3667981028556824, 0.2481643557548523, -0.22470755875110626, -0.3155600428581238, -0.06850901246070862, -0.10368385165929794, -0.04717537760734558, -0.2926747798919678, -0.028330819681286812, 0.09004967659711838, -0.014662987552583218, 0.2022332400083542, -0.03215479478240013, 0.3413846492767334, 0.13992604613304138, -0.21806900203227997, 0.2623140215873718, -0.10153508931398392, 0.22381356358528137, -0.05446120724081993, 0.007021201774477959, 0.025598013773560524, 0.05154091864824295, -0.0559036023914814, 0.14368517696857452, -0.264181524515152, -0.1081194132566452, 0.1180357038974762, 0.01627458818256855, -0.39867714047431946, -0.003668320132419467, -0.12949137389659882, 0.18793530762195587, -0.005952855106443167, 0.24478119611740112, -0.07376352697610855, 0.11709357798099518, 0.061631057411432266, 0.24471473693847656, 0.14245614409446716, -0.3167266547679901, 0.07062292844057083, 0.16257788240909576, -0.20527860522270203, -0.09935910999774933, 0.06007908657193184, -0.07053357362747192, -0.19077728688716888, -0.1827714592218399, 0.12294550985097885, -0.14270645380020142, 0.1451815664768219, 0.10214349627494812, 0.14376947283744812, -0.04363182187080383, -0.1094079315662384, 0.012294735759496689, 0.04614182561635971, -0.0529218353331089, -0.008381854742765427, -0.25838395953178406, 0.22819043695926666, -0.1189412772655487, 0.36710867285728455, -0.09934602677822113, -0.06624250113964081, -0.08640854060649872, 0.1468098759651184, 0.16343681514263153, 0.06249673664569855, -0.3376423120498657, 0.059656575322151184, -0.20489901304244995, -0.015699109062552452, 0.22117948532104492, 0.055240124464035034, -0.30646130442619324, 0.2408285140991211, 0.3586329221725464, -0.05428418144583702, 0.40192916989326477, -0.2266206592321396, 0.07657939195632935, 0.3700804114341736, 0.23314088582992554, 0.2024247795343399, 0.02203771099448204, 0.07530226558446884, -0.2570159435272217, -0.29538223147392273, 0.18547233939170837, -0.01054712850600481, 0.05142112821340561, -0.2104666531085968, 0.15007226169109344, -0.3540620505809784, 0.24471285939216614, -0.22097979485988617, -0.10041201859712601, 0.13402482867240906, 0.13442422449588776, 0.152511328458786, -0.022420721128582954, -0.22494305670261383, 0.15211829543113708, -0.012590216472744942, 0.01558845117688179, 0.13709574937820435, 0.011170060373842716, -0.07395470887422562, 0.013505851849913597, -0.02861381508409977, 0.14126504957675934, 0.057431288063526154, -0.0740642175078392, 0.0006278827204369009, 0.13780219852924347, 0.018183251842856407, 0.000719132018275559, -0.17286348342895508, -0.06178012117743492, 0.08288110047578812, -0.15661866962909698, -0.2705322802066803, -0.0984608456492424, 0.002282346598803997, -0.1650630235671997, 0.14106419682502747, -0.02226303145289421, -0.14005301892757416, -0.2772393822669983, -0.18111608922481537, -0.1346273273229599, -0.14976434409618378, 0.10728172212839127, 0.16276775300502777, -0.2030521035194397, -0.21749107539653778, -0.001397751155309379, -0.06832974404096603, 0.08485376834869385, 0.07460992783308029, -0.046147532761096954, -0.18076157569885254, -0.22447334229946136, 0.19625023007392883, -0.027798140421509743, -0.16448354721069336, -0.0028733944054692984, 0.06655164062976837, 0.08124368637800217, -0.18242812156677246, 0.055870357900857925, 0.1169111505150795, -0.1628289669752121, -0.04694298282265663, -0.13265463709831238, 0.005545131396502256, -0.032468125224113464, -0.039064668118953705, 0.19455702602863312, -0.1598019003868103, 0.026730233803391457, 0.03201150521636009, -0.02890806645154953, 0.10558123141527176, 0.13672347366809845, -0.1299334317445755, -0.01734401285648346, -0.04603618383407593, 0.16946296393871307, -0.17863787710666656, 0.024731077253818512, -0.15810725092887878, -0.28749796748161316, -0.05606422200798988, 0.20809513330459595, -0.03588153421878815, -0.14586466550827026, 0.14369326829910278, -0.08605896681547165, 0.025168966501951218, -0.07400889694690704, 0.1258719563484192, -0.06558164954185486, 0.08600843697786331, 0.02199900895357132, -0.18215902149677277, 0.11253158003091812, 0.13339805603027344, -0.01845679059624672, -0.35049113631248474, -0.17462633550167084, 0.13816164433956146, -0.2646188735961914, -0.22080111503601074, 0.007523423060774803, 0.10267840325832367, 0.12489210069179535, 0.019570467993617058, -0.03993450477719307, -0.0626237764954567, -0.1491774171590805, -0.1167830303311348, 0.031395744532346725, -0.11212913691997528, -0.10024755448102951, -0.05554351583123207, -0.050991661846637726, 0.14500513672828674, 0.041878413408994675, -0.1321447789669037, 0.04621433466672897, -0.035924751311540604, 0.0830547884106636, 0.05805134028196335, 0.02398633398115635, -0.16781719028949738, 0.261042982339859, 0.007849406450986862, -0.2175305187702179, -0.08085852861404419, 0.268841028213501, 0.10302621871232986, 0.2357054501771927, -0.21244658529758453, -0.026175320148468018, -0.21293190121650696, -0.07749632745981216, 0.09316954761743546, 0.07317658513784409, -0.24720297753810883, 0.026907555758953094, -0.12988242506980896, 0.05381527915596962, -0.18542729318141937, 0.0028929291293025017, -0.18745627999305725, 0.18551217019557953, -0.007487577386200428, -0.022147277370095253, -0.06328422576189041, 0.1778849959373474, 0.18196998536586761, -0.24914878606796265, 0.09765731543302536, -0.03944064676761627, 0.12234900146722794, 0.12227580696344376, 0.05875832960009575, 0.2555093467235565, -0.23260244727134705, 0.13834552466869354, -0.00868214387446642, -0.06583222001791, -0.06431075185537338, -0.0465998500585556, -0.1077580451965332, 0.05561211705207825, 0.06542897969484329, 0.032813120633363724, -0.22272613644599915, -0.14765147864818573, 0.16053514182567596, 0.09675928205251694, -0.1031385064125061, -0.11218137294054031, -0.02545762062072754, 0.24889391660690308, -0.015071188099682331, 0.1690891534090042, -0.06061829626560211, -0.03536509349942207, 0.17233707010746002, 0.17210379242897034, -0.13626980781555176, 0.07229886949062347, -0.007871873676776886, -0.018357520923018456, -0.23147326707839966, 0.08823680132627487, 0.1283251941204071, -0.13457021117210388, 0.03569929301738739, -0.004758972208946943, -0.14904503524303436, 0.06642567366361618, 0.28827404975891113, 0.06035878136754036, 0.0061518047004938126, 0.13598740100860596, 0.10029932856559753, -0.0526760071516037, 0.025887861847877502, -0.16535763442516327, -0.05670812726020813, -0.14112943410873413, 0.024035824462771416, 0.23732873797416687, 0.1457311362028122, 0.10185341536998749, 0.02069808915257454, -0.13627301156520844, -0.0744970515370369, -0.0018782614497467875, 0.2007967084646225, 0.25655004382133484, -0.015714431181550026, -0.018588343635201454, 0.07300923764705658, -0.21586555242538452, -0.11439985036849976, 0.09228713065385818, 0.20226211845874786, 0.5429033637046814, 0.16673652827739716, -0.3372410237789154, -0.2235284298658371, -0.030474964529275894, 0.05140586569905281, 0.19584539532661438, -0.15156853199005127, -0.19509746134281158, -0.1590815782546997, 0.030322333797812462, 0.20523904263973236, 0.2267596572637558, 0.14417238533496857, -0.16617392003536224, -0.07477901875972748, -0.03458218649029732, 0.14597590267658234, 0.24526400864124298, -0.012737009674310684, -0.17131537199020386, -0.28407731652259827, -0.026364395394921303, 0.26803645491600037, -0.10288498550653458, -0.2325073778629303, 0.17315365374088287, 0.1154467910528183, -0.04761318862438202, -0.13147102296352386, 0.15702441334724426, -0.048443809151649475, -0.24167844653129578, -0.018110603094100952, -0.014260951429605484, 0.12514671683311462, -0.1166153997182846, -0.13056278228759766, -0.07774465531110764, -0.06948643922805786, 0.05155685171484947, -0.02015557512640953, 0.03700254485011101, -0.31043094396591187, -0.010043615475296974, 0.06710562109947205, 0.08119617402553558, 0.2602517604827881, -0.27320700883865356, 0.327955424785614, 0.4338410496711731, -0.008394371718168259, 0.11497645825147629, 0.04479717090725899, 0.060837097465991974, -0.14786291122436523, -0.16289396584033966, -0.09485995769500732, 0.028064515441656113, 0.08415687829256058, 0.19237999618053436, -0.048826348036527634, -0.15849782526493073, 0.12807397544384003, 0.09314965456724167, 0.0988825187087059, 0.13875576853752136, -0.05209466442465782, 0.02892306074500084, 0.3643770217895508, -0.26251891255378723, 0.14130640029907227, 0.038538482040166855, 0.06410066783428192, 0.33786195516586304, -0.04730089381337166, -0.21872954070568085, 0.02825711853802204, -0.011129941791296005, 0.21054120361804962, -0.15492045879364014, -0.11855385452508926, 0.07399903982877731, 0.03610039874911308, 0.02748781442642212, 0.013323649764060974, -0.01223535556346178, -0.0038715677801519632, 0.2053055316209793, -0.0903262346982956, -0.13974910974502563, 0.11099299043416977, 0.10381259769201279, 0.2746559977531433, 0.003081768983975053, 0.027681857347488403, -0.04840623587369919, 0.3237834870815277, 0.379883348941803, 0.2372177690267563, -0.16152304410934448, 0.11601493507623672, -0.08710267394781113, 0.0014546813908964396, 0.03514300659298897, 0.03801703080534935, -0.07781606167554855, 0.02158319391310215, -0.12973929941654205, 0.11935508251190186, -0.16127915680408478, 0.06576529145240784, -0.044052280485630035, -0.03504496067762375, -0.06998048722743988, 0.07753369212150574, 0.0584476962685585, 0.15548372268676758, 0.13302691280841827, -0.2231837809085846, 0.11852435767650604, 0.13052032887935638, 0.19892612099647522, -0.12066598981618881, 0.14291509985923767, -0.13046176731586456, -0.4489501416683197, 0.09110749512910843, -0.08915340900421143, 0.08503632992506027, -0.18797846138477325, -0.050681401044130325, -0.17738203704357147, -0.04866474121809006, -0.08612050861120224, 0.15806546807289124, 0.004163808189332485, -0.016091713681817055, -0.1836085170507431, -0.209073007106781, 0.018043847754597664, -0.0033854914363473654, -0.03948204219341278, -0.10727407038211823, -0.058835744857788086, 0.1263107806444168, -0.08937586843967438, 0.15788409113883972, 0.03830546885728836, -0.027342522516846657, -0.10633012652397156, -0.08466929942369461, 0.12759548425674438, 0.03279390558600426, -0.015795977786183357, 0.019842475652694702, -0.05673595890402794, -0.2743101716041565, 0.1277129352092743, 0.15279610455036163, 0.1706281304359436, 0.03463014215230942, 0.011207259260118008, -0.22307486832141876, -0.0327470526099205, 0.030395492911338806, -0.1537533700466156, -0.1506708860397339, -0.10110853612422943, 0.024304844439029694, -0.22861242294311523, -0.2443937063217163, -0.12172866612672806, -0.17813777923583984, -0.04203508049249649, 0.07451282441616058, 0.17506548762321472, -0.03184562921524048, 0.05629799887537956, -0.03149354085326195, 0.15504415333271027, 0.1697508692741394, 0.010275282897055149, -0.1618935912847519, -0.15326707065105438, -0.14955729246139526, 0.266075074672699, 0.04217035323381424, 0.21330223977565765, 0.11798834800720215, 0.0005132343503646553, -0.010570417158305645, -0.12264147400856018, 0.14865021407604218, -0.15024036169052124, -0.14457638561725616, 0.12971022725105286, 0.06384538114070892, 0.08650454878807068, 0.0015223888913169503, -0.12306459248065948, -0.24066409468650818, -0.07230480760335922, 0.029720496386289597, 0.0608588382601738, -0.17222435772418976, 0.07959602773189545, -0.04054725915193558, 0.14254620671272278, -0.101826012134552, 0.24008765816688538, -0.0800650343298912, -0.10101129114627838, -0.07714328914880753, -0.03169996291399002, 0.4886675775051117, 0.11861199140548706, 0.2776547372341156, 0.32436999678611755, 0.09427992254495621, -0.11598270386457443, -0.17582233250141144, 0.09202109277248383, -0.09036177396774292, -0.11033637076616287, -0.17007014155387878, 0.05814475566148758, -0.012837204150855541, -0.06644975394010544, -0.06947211176156998, -0.08289141952991486, 0.02637699991464615, 0.25400510430336, 0.27121737599372864, -0.25947311520576477, 0.05404128506779671, 0.06684301048517227, 0.1459021419286728, 0.23210874199867249, 0.07149194926023483, 0.03471823409199715, -0.008086930960416794, -0.3902853727340698, -0.0626789778470993, -0.27628466486930847, -0.16202782094478607, -0.19802325963974, -0.11550265550613403, 0.024784229695796967, -0.08551114797592163, -0.10056895762681961, -0.03237317502498627, -0.0752091184258461, 0.2657361328601837, 0.18199138343334198, 0.006554978433996439, -0.017734529450535774, 0.07095663994550705, -0.12976033985614777, 0.08544255793094635, 0.29650646448135376, 0.15042941272258759, 0.13795718550682068, 0.21001353859901428, -0.11102890223264694, -0.08102930337190628, -0.24382565915584564, -0.2644292116165161, -0.0632980465888977, -0.01870334893465042, -0.2705693244934082, -0.22393648326396942, -0.02457590214908123, 0.007475649937987328, -0.06114201620221138, -0.19178025424480438, 0.020877839997410774, 0.15622711181640625, -0.09320858120918274, -0.2597317099571228, -0.09836439043283463, -0.13779409229755402, -0.17368261516094208, -0.17692488431930542, 0.18850770592689514, -0.10851243138313293, 0.004259306471794844, -0.021203476935625076, -0.14573879539966583, -0.06416540592908859, -0.24777337908744812, 0.37142008543014526, 0.4227885603904724, -0.04996437951922417, -0.1636194884777069, 0.0356605090200901, 0.23642322421073914, 0.31879177689552307, 0.37473613023757935, -0.0290344450622797, -0.3405505418777466, -0.3108649253845215, 0.2591787278652191, -0.001183009473606944, -0.14021676778793335, -0.12594477832317352, -0.20028607547283173, -0.2616642713546753, 0.011112471111118793, 0.3022560477256775, 0.14476381242275238, -0.12621644139289856, 0.18897078931331635, 0.24132850766181946, -0.0661558210849762, -0.08617410063743591, -0.10418740659952164, 0.17322219908237457, -0.1184501051902771, -0.12659606337547302, -0.0649690106511116, 0.28577345609664917, 0.05176002159714699, -0.1130182296037674, 0.23267731070518494, 0.14331147074699402, 0.11516594141721725, -0.22612304985523224, -0.1307697296142578, -0.4393382966518402, 0.13776394724845886, 0.4495762884616852, -0.1912628412246704, -0.19194698333740234, -0.35015302896499634, -0.30244991183280945, 0.025116464123129845, -0.17146794497966766, -0.3780391216278076, -9.975599823519588e-05, 0.014905449002981186, 0.3401360511779785, 0.17877532541751862, 0.2172989696264267, 0.11281529068946838, 0.13647478818893433, 0.14622367918491364, 0.609099805355072, 0.20261621475219727, 0.08828859031200409, -0.3635956943035126, -0.2924746572971344, -0.12171263247728348, -0.011169887147843838, 0.04985042288899422, 0.22517238557338715, -0.2995453178882599, -0.11803372949361801, -0.04546881839632988, -0.1429065316915512, 0.11789889633655548, -0.1576157808303833, -0.148055300116539, 0.3779332637786865, 0.3138100206851959, -0.17215411365032196, 0.23952311277389526, 0.18360762298107147, -0.2192741334438324, -0.19807220995426178, -0.13181036710739136, 0.45132994651794434, 0.011115538887679577, 0.12151940166950226, -0.0926988422870636, 0.1323508620262146, 0.06261095404624939, 0.028243573382496834, -0.011045035906136036, 0.08830390870571136, 0.03936192765831947, -0.17742881178855896, -0.02169174514710903, -0.1297968178987503, -0.3116634786128998, -0.35552486777305603, -0.010914107784628868, -0.05738410726189613, -0.08831529319286346, 0.09760178625583649, 0.015256724320352077, -0.11573527753353119, 0.16415078938007355, 0.07885304093360901, 0.002640209160745144, 0.04560381919145584, -0.07818398624658585, 0.06251393258571625, 0.19078311324119568, -0.042434729635715485, 0.029816411435604095, -0.09546946734189987, 0.06118782237172127, 0.09351298958063126, 0.06940995901823044, -0.009790949523448944, -0.010160497389733791, -0.007635063491761684, -0.3141428828239441, -0.25596585869789124, 0.07240385562181473, -0.09434035420417786, -0.06000089272856712, -0.028742985799908638, 0.006448583677411079, -0.3141861855983734, -0.0032158654648810625, 0.08704204857349396, 0.13153056800365448, -0.06515220552682877, -0.10241252928972244, -0.01336977444589138, 0.1906903088092804, 0.008047979325056076, -0.09980085492134094, -0.09738181531429291, 0.12712809443473816, -0.25072208046913147, 0.1684110462665558, -0.17675067484378815, -0.010575811378657818, 0.06206122413277626, -0.34739938378334045, 0.19832220673561096, -0.03459468111395836, -0.1240021362900734, 0.31553077697753906, -0.031152913346886635, 0.14354577660560608, 0.04605729505419731, -0.030294125899672508, 0.14043331146240234, 0.21363703906536102, -0.04404526576399803, 0.08911964297294617, -0.2921801209449768, 0.036927565932273865, 0.034377556294202805, -0.11465109139680862, 0.033893000334501266, 0.07582854479551315, -0.1749143898487091, -0.059998683631420135, -0.10353575646877289, 0.15447114408016205, 0.09096817672252655, -0.3152192234992981, 0.3029308617115021, 0.15417037904262543, 0.17305614054203033, 0.033750757575035095, -0.07233940809965134, 0.11679767072200775, -0.11927428841590881, -0.18681703507900238, -0.06892229616641998, 0.10114648193120956, 0.08540154248476028, -0.013261636719107628, 0.05419520288705826, 0.09459848701953888, -0.17077188193798065, 0.1035081148147583, -0.15150456130504608, 0.048291631042957306, 0.3779258728027344, 0.14028134942054749, -0.051186494529247284, -0.21883125603199005, -0.08888716995716095, -0.22928352653980255, -0.1244918629527092, -0.21661071479320526, 0.15929605066776276, -0.2718573212623596, -0.07931050658226013, -0.0255705825984478, 0.19925834238529205, 0.04163969308137894, 0.08431022614240646, -0.05571448802947998, -0.09234222024679184, 0.05042318254709244, 0.12515924870967865, -0.03986096754670143, -0.19851218163967133, -0.2593711316585541, -0.07459957897663116, -0.012302711606025696, 0.28185680508613586, 0.16230863332748413, 0.15783633291721344, 0.09083191305398941, 0.1767951101064682, 0.09571523219347, -0.08543108403682709, 0.11974383145570755, 0.023226995021104813, 0.14452368021011353, 0.04328646510839462, -0.17668083310127258, 0.10557067394256592, -0.2040804624557495, 0.13597896695137024, -0.18843315541744232, -0.005054484587162733, -0.35124313831329346, -0.10826855152845383, -0.20610477030277252, 0.3469255566596985, 0.24542032182216644, 0.19750992953777313, 0.015841299667954445, -0.02764679118990898, -0.025368770584464073, 0.14336895942687988, 0.18485067784786224, 0.08250585943460464, 0.21702495217323303, -0.06411665678024292, -0.3296160101890564, -0.31419092416763306, -0.3045116662979126, -0.14585569500923157, 0.09523506462574005, 0.055513348430395126, -0.3738690912723541, -0.27194100618362427, -0.2703089118003845, -0.195320263504982, 0.03953879699110985, 0.04955657944083214, 0.017938779667019844, -0.006933282595127821, 0.2606833279132843, 0.25330671668052673, 0.13903358578681946, 0.15767286717891693, -0.06587694585323334, -0.17911112308502197, -0.09693944454193115, 0.09130021929740906, -0.26159846782684326, -0.3501911759376526, -0.07520274817943573, 0.054228972643613815, 0.030083179473876953, -0.28038352727890015, 0.20902511477470398, -0.015966646373271942, -0.0017862484091892838, -0.11317674070596695, 0.08902642130851746, 0.1910429298877716, 0.17987966537475586, 0.10509469360113144, -0.002090051770210266, 0.088949054479599, -0.14853650331497192, 0.07026692479848862, 0.11083593219518661, 0.03408164903521538, -0.03964575007557869, -0.2392711043357849, 0.11629866063594818, 0.3281154930591583, 0.11743687838315964, 0.12530620396137238, 0.22736360132694244, -0.2343129813671112, -0.3457728326320648, 0.29585397243499756, 0.24608656764030457, -0.6410802602767944, 0.318438321352005, -0.8570243716239929, -0.22302208840847015, -0.29251381754875183, 0.6880995035171509, -1.0302881002426147, -0.7462558746337891, -0.3762105703353882, 0.13865484297275543, -0.9150739312171936, 0.23410703241825104, -0.6747916340827942, -0.11509875953197479, 0.13463494181632996, 0.13185666501522064, 0.15167970955371857, 0.25214239954948425, -0.03338856250047684, -0.24049174785614014, -0.07632702589035034, 0.11534249782562256, 0.03707057610154152, -0.06343480944633484, 0.09024197608232498, -0.018620960414409637, 0.033122800290584564, -0.16731922328472137, -0.10433030128479004, -0.029725538566708565, -0.27332764863967896, 0.14346790313720703, 0.07966002076864243, -0.2090499848127365, 0.0793655514717102, -0.06230596452951431, -0.07733859866857529, 0.18080274760723114, -0.2802228331565857, 0.1678723245859146, 0.5447340607643127, 0.08189541101455688, 0.1526220738887787, 0.023187007755041122, 0.3964442014694214, -0.08340029418468475, -0.21775199472904205, 0.1116509810090065, 0.28237947821617126, -0.010736715979874134, 0.1460408866405487, 0.09620827436447144, 0.1374671757221222, -0.12989528477191925, 0.08607993274927139, -0.0673951581120491, 0.04974943399429321, -0.10025667399168015, 0.12072819471359253, 0.09809770435094833, 0.03953861817717552, 0.01574973203241825, 0.1458141803741455, 0.0662732794880867, -0.24318526685237885, 0.08251911401748657, -0.11156658083200455, -0.2862182557582855, 0.06755827367305756, 0.029950223863124847, 0.021027281880378723, 0.009050874039530754, 0.12352161109447479, 0.14050987362861633, -0.045260824263095856, -0.05206046998500824, 0.08342965692281723, 0.3352557122707367, 0.08895844221115112, -0.012182033620774746, -0.25393179059028625, 0.6314612030982971, -0.04677325859665871, -0.2078056037425995, 0.012894516810774803, 0.5108004808425903, -0.005961382295936346, -0.03300067037343979, 0.3421281576156616, -0.08434365689754486, -0.30258092284202576, -0.16989590227603912, -0.11946181952953339, -0.2039383202791214, -0.02929956652224064, -0.3742230236530304, -0.1254231482744217, 0.028968682512640953, -0.18830040097236633, 0.12346503138542175, -0.15973849594593048, 0.0013614337658509612, 0.20164169371128082, -0.3186488151550293, -0.2104821354150772, -0.0020833711605519056, -0.07380342483520508, 0.24163876473903656, -0.04082432761788368, 0.3696509599685669, 0.07113160192966461, 0.21255336701869965, -0.4143300950527191, 0.29983291029930115, 0.15721163153648376, -0.2862946689128876, -0.32523277401924133, 0.272166907787323, -0.044731996953487396, -0.2597218155860901, 0.3389718234539032, -0.014658020809292793, -0.0376737117767334, -0.0360146164894104, 0.18596230447292328, 0.10525450855493546, 0.06314534693956375, -0.1574472337961197, 0.06312554329633713, 0.05007036402821541, -0.18804706633090973, 0.11081991344690323, 0.005793601740151644, -0.15974892675876617, 0.329778790473938, -0.35747355222702026, 0.02539764530956745, 0.02740572765469551, -0.07494748383760452, 0.15027637779712677, 0.07842200994491577, 0.04534497112035751, 0.14000917971134186, -0.20893190801143646, -0.17057199776172638, -0.23557321727275848, -0.13737329840660095, 0.06753502786159515, -0.10016337782144547, -0.08038859814405441, -0.007989390753209591, 0.4026835560798645, 0.12208341062068939, -0.06910126656293869, -0.02369484305381775, 0.01613009348511696, 0.39184337854385376, -0.14403775334358215, 0.09528473764657974, -0.2453346997499466, -0.05607709288597107, 0.010637180879712105, -0.33669155836105347, 0.20984388887882233, -0.039168283343315125, -0.1700667142868042, -0.005695048253983259, 0.16535040736198425, 0.1264958381652832, 0.09942063689231873, -0.19726639986038208, 0.3284018039703369, -0.03627922013401985, -0.07451488822698593, -0.045129306614398956, -0.10967288166284561, 0.10440131276845932, 0.1629330813884735, -0.12492083758115768, 0.013701866380870342, -0.019270820543169975, 0.09651603549718857, 0.2805601954460144, -0.1767084300518036, 0.38715532422065735, -0.042264748364686966, 0.2361775040626526, 0.04618671536445618, 0.0825905054807663, -0.014783750288188457, 0.07422634959220886, -0.01709543727338314, -0.01264247763901949, -0.2822219729423523, -0.1297474503517151, 0.06354553997516632, 0.2276620864868164, -0.1833013892173767, -0.04747394844889641, 0.007204375229775906, -0.2456325888633728, -0.07800418138504028, -0.15974576771259308, 0.12143675982952118, -0.1691882461309433, -0.13456512987613678, -0.15161898732185364, -0.12612256407737732, 0.08475086838006973, -0.11240369081497192, -0.21323426067829132, 0.022311685606837273, 0.06874110549688339, -0.04332030937075615, -0.07770033180713654, -0.31757116317749023, -0.14691519737243652, 0.1573948860168457, -0.44293084740638733, 0.00927842129021883, -0.09692377597093582, 0.18788555264472961, 0.01136750727891922, -0.14857327938079834, 0.1494264006614685, 0.027026742696762085, 0.11200722306966782, 0.06327597796916962, -0.054402243345975876, 0.10374143719673157, 0.18522214889526367, 0.09380822628736496, 0.0877537801861763, 0.15316177904605865, 0.10267852991819382, -0.000480411370517686, -0.045073118060827255, 0.012060181237757206, 0.16800877451896667, 0.057869598269462585, -0.04180356487631798, -0.1305082142353058, -0.10381940752267838, 0.12758560478687286, 0.043288830667734146, -0.22125254571437836, 0.1048908680677414, -0.11933466047048569, 0.06525630503892899, 0.14160862565040588, 9.71488916547969e-05, 0.19857414066791534, 0.07499708980321884, -0.1565386801958084, -0.2942061424255371, -0.14463402330875397, 0.1729830801486969, -0.2423182725906372, -0.03781628981232643, 0.004324247594922781, 0.24755431711673737, 0.11639675498008728, -0.16525667905807495, 0.22721169888973236, -0.4055928885936737, 0.15729035437107086, 0.04756300523877144, -0.3992008864879608, -0.3025590181350708, -0.015375598333775997, -0.17743715643882751, 0.06151122599840164, -0.1379145234823227, -0.01330120861530304, 0.10045240819454193, 0.1860474944114685, 0.23250631988048553, 0.03954685106873512, -0.08984594792127609, 0.25056958198547363, -0.27615755796432495, 0.14048022031784058, -0.23626446723937988, -0.10407362878322601, -0.2762177288532257, 0.0723525881767273, -0.06787519156932831, -0.08927953988313675, 0.18538092076778412, -0.04260711744427681, -0.2021811604499817, 0.06542234122753143, -0.042998094111680984, -0.03341355547308922, -0.01900307834148407, 0.06707505136728287, -0.1425558477640152, 0.12199429422616959, 0.0746101438999176, -0.2079080194234848, -0.04675629734992981, 0.10584888607263565, 0.11622577905654907, -0.02181827649474144, 0.07416198402643204, -0.10795741528272629, -0.07427436113357544, 0.1302434504032135, -0.16152776777744293, 0.08521988242864609, 0.17104852199554443, -0.024293936789035797, 0.08756192773580551, -0.01766701228916645, 0.05136564001441002, 0.0006632596487179399, 0.08325381577014923, -0.13137927651405334, -0.08962755650281906, 0.0660942792892456, 0.18624095618724823, -0.06585665047168732, -0.20997485518455505, 0.3157714903354645, -0.018623409792780876, 0.11201277375221252, -0.14723415672779083, 0.23317381739616394, 0.05818379670381546, -0.14652949571609497, 0.03230305761098862, -0.31247478723526, 0.08254330605268478, -0.0638556107878685, -0.0719514712691307, 0.19860439002513885, 0.26362305879592896, 0.808910071849823, -0.4599730372428894, 0.0613817423582077, 0.14995214343070984, 0.03577027842402458, -0.0038082180544734, -0.08514955639839172, -0.10464560985565186, 0.2822742760181427, -0.12985876202583313, -0.028405681252479553, -0.29956603050231934, -0.2460571974515915, -0.20953546464443207, 0.23247426748275757, -0.12170619517564774, 0.02817874774336815, -0.09048081189393997, -0.03657246753573418, -0.08037405461072922, 0.19564057886600494, 0.1045532077550888, -0.18837346136569977, 0.1770365983247757, 0.13689403235912323, -0.04318413510918617, 0.30887535214424133, 0.16030336916446686, -0.042618557810783386, -0.21352596580982208, -0.08171025663614273, -0.09051322191953659, -0.27399492263793945, 0.05360683426260948, 0.1023588478565216, 0.05600014701485634, -0.02113804593682289, -0.23298506438732147, 0.06492621451616287, 0.18254783749580383, 0.04807491973042488, 0.021901560947299004, -0.045714523643255234, 0.1121230199933052, 0.16072659194469452, -0.2173282951116562, -0.13557584583759308, 0.0515458807349205, 0.08008463680744171, 0.023663640022277832, 0.23439086973667145, 0.07031110674142838, 0.31313326954841614, -0.3752352297306061, 0.05217335745692253, -0.1690884828567505, -0.18194438517093658, -0.10413359105587006, -0.24058294296264648, 0.0548914335668087, 0.19724397361278534, -0.008636672049760818, -0.0324275828897953, 0.23427346348762512, 0.01620761677622795, -0.08142656832933426, 0.20166486501693726, 0.02131022699177265, 0.0820707231760025, 0.13322055339813232, 0.10870255529880524, 0.11301743984222412, 0.32372358441352844, -0.01278876792639494, -0.1338260918855667, 0.1409953087568283, -0.0849829688668251, -0.04750342294573784, 0.13295045495033264, 0.1317099928855896, 0.1022227481007576, -0.0745537057518959, 0.18529783189296722, 0.02035718970000744, 0.23248443007469177, 0.1340586543083191, 0.01609470322728157, -0.027109088376164436, -0.017942141741514206, -0.08691852539777756, -0.26839274168014526, 0.03980504348874092, 0.026432422921061516, 0.001836025738157332, 0.07891497761011124, -0.41685348749160767, 0.26326459646224976, -0.14246056973934174, 0.017011437565088272, 0.3052166998386383, 0.014686635695397854, 0.22506345808506012, -0.1097559705376625, -0.08386978507041931, 0.37119022011756897, -0.32945701479911804, -0.14422765374183655, -0.1325266808271408, -0.5431681871414185, -0.12928782403469086, 0.19222579896450043, -0.14867180585861206, -0.18634745478630066, 0.21881736814975739, -0.18681307137012482, -0.015310555696487427, -0.0347723662853241, 0.12529589235782623, 0.19173309206962585, -0.4003089964389801, -0.37389323115348816, 0.06186280772089958, 0.02203010581433773, 0.05276412516832352, 0.06306211650371552, -0.023166386410593987, -0.005749665200710297, 0.004203043412417173, 0.07591281831264496, 0.10067728906869888, 0.18646541237831116, 0.031805261969566345, -0.08805695176124573, 0.10586860030889511, -0.00046625512186437845, -0.05482488498091698, 0.2037893682718277, -0.03691621124744415, 0.1192348301410675, 0.06942000985145569, 0.14614497125148773, -0.12745296955108643, -0.16228674352169037, -0.029690520837903023, -0.0802956372499466, 0.03224722668528557, -0.1355573534965515, -0.0792561024427414, 0.06446463614702225, 0.11134661734104156, 0.30646657943725586, -0.0008947099559009075, -0.17332793772220612, 0.06316997110843658, -0.08398579061031342, 0.18541690707206726, 0.2697768211364746, -0.1372322142124176, -0.32363319396972656, -0.14471156895160675, 0.1692630648612976, -0.08630190789699554, -0.09064367413520813, -0.037462566047906876, -0.15931470692157745, -0.22610047459602356, 0.25093770027160645, 0.03120899200439453, 0.07022874802350998, -0.15823838114738464, -0.22173260152339935, -0.13728009164333344, 0.21976925432682037, 0.20271305739879608, 0.13370104134082794, -0.08763334900140762, 0.11616239696741104, 0.07970621436834335, -0.13193896412849426, -0.19460031390190125, -0.16045565903186798, 0.34123727679252625, -0.09521505236625671, -0.15850308537483215, 0.3533458113670349, 0.22292938828468323, -0.02184646762907505, -0.23767033219337463, -0.00977248139679432, -0.1653776466846466, 0.0037943986244499683, 0.1988508552312851, -0.3322218656539917, 0.5885398387908936, -0.004257622174918652, -0.09333287179470062, -0.08643417805433273, 0.0812457725405693, -0.22758670151233673, 0.09080035984516144, 0.06192603334784508, -0.011107022874057293, 0.21297839283943176, -0.08105161786079407, -0.1594441682100296, -0.2207956612110138, -0.11197106540203094, -0.0452633798122406, 0.04551118612289429, -0.3509078621864319, -0.45585986971855164, -0.12990376353263855, 0.09474972635507584, 0.07643846422433853, -0.13359957933425903, -0.009411982260644436, 0.3082207441329956, -0.1282663196325302, 0.029812203720211983, 0.08338861912488937, 0.021596934646368027, 0.09685706347227097, 0.07413086295127869, -0.10061761736869812, -0.04387134686112404, -0.188946932554245, -0.27402350306510925, 0.06458032131195068, 0.1656145602464676, 0.029271071776747704, -0.01787908375263214, 0.014248725958168507, -0.10624697059392929, 0.11499388515949249, 0.025282105430960655, 0.022854266688227654, -0.3201557993888855, -0.5490825772285461, -0.003921637777239084, 0.436501681804657, 0.3037830591201782, 0.00644376315176487, 0.21155701577663422, 0.13600458204746246, -0.3786922097206116, 0.061092559248209, 0.2084268182516098, 0.42779773473739624, -0.6104584336280823, -0.6873391270637512, 0.7540001273155212, -0.11103397607803345, 0.13602450489997864, 0.315620094537735, -0.16774828732013702, -0.048116523772478104, -0.13569030165672302, -0.3073776662349701, -0.21163734793663025, -0.029336245730519295, -0.059568703174591064, 0.20642496645450592, -0.1279449611902237, -0.11551301181316376, 0.39691829681396484, 0.23362520337104797, -0.06853743642568588, 0.2622898519039154, -0.1570555567741394, 0.27461856603622437, 0.21064309775829315, -0.06049983203411102, 0.0031094620935618877, -0.05051128938794136, 0.21115614473819733, 0.051849961280822754, 0.10507108271121979, -0.10692170262336731, 0.039107322692871094, 0.45493561029434204, 0.016693824902176857, 0.07260805368423462, -0.4200684726238251, 0.01614125818014145, -0.014030382968485355, 0.2286560833454132, -0.05001414194703102, -0.17871282994747162, 0.2351129651069641, 0.07836845517158508, 0.06900997459888458, 0.28724145889282227, 0.03562416136264801, -0.16332048177719116, -0.1599539816379547, -0.01731661520898342, -0.020976901054382324, 0.0970681831240654, -0.044549182057380676, 0.08937163650989532, -0.28323471546173096, 0.028554657474160194, -0.09948650002479553, -0.09712196886539459, -0.0266268253326416, -0.22635166347026825, -0.2057921588420868, -0.20661495625972748, 0.11870452016592026, 0.17002512514591217, -0.04082726314663887, 0.3198557496070862, 0.05712965875864029, 0.24143628776073456, 0.12005648761987686, -0.08037962764501572, -0.02344713918864727, 0.12148496508598328, -0.08052244037389755, -0.034494731575250626, 0.06482233852148056, -0.07619567960500717, 0.3083546757698059, -0.04984250292181969, -0.01564604789018631, -0.023013390600681305, 0.11801183223724365, -0.1335877776145935, -0.03768494352698326, -0.22809086740016937, 0.004977065604180098, -0.005262596067041159, -0.19147144258022308, -0.18652354180812836, 0.09118218719959259, -0.08579713851213455, 0.17947308719158173, 0.4065053462982178, 0.042228203266859055, 0.03502681106328964, -0.17851339280605316, 0.04853709414601326, 0.22776952385902405, 0.0943702906370163, 0.11112327873706818, 0.18670408427715302, -0.11434002965688705, 0.0784621611237526, -0.042984817177057266, -0.18096019327640533, 0.3352205455303192, 0.040782380849123, -0.13502717018127441, 0.11662186682224274, -0.07647725194692612, -0.5629188418388367, 0.19186928868293762, -0.0827903151512146, -0.10802143067121506, -0.05622931569814682, 0.025374410673975945, 0.10388484597206116, 0.150111123919487, 0.015731846913695335, -0.3213083744049072, -0.0949781984090805, 0.07241284847259521, 0.19647946953773499, -0.22478729486465454, -0.003034008899703622, 0.016967078670859337, 0.12066668272018433, -0.058843400329351425, -0.04794509336352348, 0.20397324860095978, 0.07374256104230881, -0.2468516081571579, -0.06034127622842789, 0.010996426455676556, 0.15852701663970947, 0.10050958395004272, -0.12209311127662659, -0.22796417772769928, 0.05699331313371658, -0.3986942768096924, -0.153468057513237, -0.14799493551254272, -0.12390240281820297, 0.16258248686790466, 0.02381385862827301, 0.018548941239714622, -0.09114689379930496, 0.18695634603500366, 0.031228002160787582, -0.06024975702166557, -0.007227477617561817, 0.2770053446292877, -0.15304458141326904, -0.1391037404537201, -0.029401160776615143, -0.1756609082221985, -0.08403275161981583, -0.18854428827762604, -0.2873164415359497, -0.19682909548282623, -0.19308078289031982, 0.19857251644134521, -0.16701088845729828, 0.1462356597185135, 0.06496267020702362, -0.00662454916164279, -0.02734747715294361, 0.08667388558387756, -0.1444760262966156, 0.2352079451084137, -0.06291975826025009, 0.0015770236495882273, 0.09674371778964996, -0.17311063408851624, -0.14198225736618042, -0.18969707190990448, 0.1957222819328308, -0.1277875155210495, 0.08651186525821686, -0.02301586978137493, 0.17758871614933014, -0.004454609006643295, -0.17592719197273254, -0.10736124962568283, 0.014271365478634834, 0.08804500848054886, -0.1819269061088562, -0.047103770077228546, -0.11493997275829315, 0.18676996231079102, 0.18633176386356354, 0.06646965444087982, 0.05357667803764343, 0.05561871454119682, 0.05035144463181496, 0.23628340661525726, -0.10515587776899338, -0.025052178651094437, 0.12102921307086945, 0.09795598685741425, 0.12659035623073578, 0.21278922259807587, 0.15144182741641998, -0.24719928205013275, 0.10738033056259155, 0.12251432985067368, -0.021746033802628517, 0.13647975027561188, 0.1573043167591095, -0.03535602614283562, -0.16395233571529388, -0.27054670453071594, 0.17974114418029785, 0.21872204542160034, 0.08650906383991241, -0.0008837190107442439, -0.08359717577695847, -0.12276260554790497, 0.14636892080307007, 0.04333563521504402, 0.07946186512708664, 0.14414562284946442, 0.22273387014865875, -0.10298581421375275, -0.16816142201423645, 0.06177358701825142, 0.18752016127109528, -0.19677019119262695, -0.14903710782527924, -0.22890040278434753, 0.06507239490747452, 0.016865398734807968, -0.10350111871957779, 0.08917940407991409, -0.027472002431750298, -0.04180065169930458, 0.1441941112279892, -0.04925195872783661, -0.02123212441802025, 0.18325914442539215, -0.03825101628899574, 0.035721227526664734, 0.04604364559054375, -0.06160146743059158, -0.03810572996735573, 0.0950959101319313, -0.03087485209107399, -0.11559832096099854, -0.08886566013097763, -0.07261043787002563, 0.12377534061670303, 0.23001767694950104, 0.10438105463981628, -0.14053556323051453, -0.06806686520576477, -0.23043788969516754, -0.0037253282498568296, -0.09748900681734085, -0.10866512358188629, -0.1349378526210785, -0.2598779797554016, -0.18019337952136993, -0.16377700865268707, -0.02650618739426136, 0.1718255877494812, -0.10956104099750519, -0.06536778807640076, 0.020741231739521027, 0.035594433546066284, -0.13303492963314056, -0.09245406836271286, -0.07887279987335205, 0.23201768100261688, -0.1544186770915985, -0.22614778578281403, 0.14879806339740753, 0.07792108505964279, -0.04422851651906967, -0.19227981567382812, -0.17598071694374084, 0.12294021993875504, 0.17279262840747833, -0.44741562008857727, -0.07493367046117783, -0.14501620829105377, 0.17141710221767426, -0.08935187757015228, 0.029036544263362885, -0.1752946674823761, -0.19362761080265045, -0.11884340643882751, -0.07526195794343948, 0.24623887240886688, -0.00619832519441843, -0.022451307624578476, -0.329610139131546, -0.04798855632543564, -0.20393618941307068, 0.1399078071117401, -0.06807686388492584, -0.06848649680614471, -0.1673969179391861, -0.0030228449031710625, 0.2449391484260559, -0.1500033587217331, 0.16804906725883484, 0.043771978467702866, -0.4729566276073456, 0.11978687345981598, 0.12856227159500122, 0.08966321498155594, 0.031039107590913773, 0.2197476029396057, -0.19454437494277954, 0.24013586342334747, -0.029915330931544304, 0.07164757698774338, -0.0019301827996969223, 0.14666105806827545, 0.008401984348893166, -0.012739387340843678, 0.14442218840122223, -0.035210687667131424, -0.012735314667224884, 0.05093904957175255, 0.09679416567087173, 0.07928098738193512, 0.02875647135078907, -0.035372331738471985, 0.03549319878220558, 0.13908489048480988, 0.14203467965126038, -0.19600282609462738, 0.1610184609889984, 0.16485291719436646, -0.16624440252780914, -0.15769630670547485, -0.24920296669006348, 0.05027594044804573, 0.1181834265589714, -0.052596040070056915, -0.08801150321960449, -0.058865707367658615, -0.22415129840373993, -0.13987427949905396, 0.11700600385665894, -0.0800386518239975, -0.14561402797698975, -0.02771880477666855, -0.02209746092557907, -0.12098730355501175, 0.05884580314159393, 0.10997950285673141, -0.006567389238625765, -0.08620745688676834, -0.03333532437682152, 0.35285693407058716, 0.1166939064860344, 0.05061296746134758, -0.1669585257768631, -0.2092076987028122, 0.0704808160662651, 0.16879692673683167, -0.1716538667678833, 0.10952486097812653, 0.016532855108380318, 0.05702868103981018, 0.06450970470905304, -0.21297971904277802, -0.03480446711182594, 0.02390287071466446, -0.039875928312540054, -0.1650458723306656, -0.06668571382761002, 0.09070571511983871, 0.10584432631731033, 0.15480349957942963, 0.12285774946212769, -0.08681248873472214, 0.17361944913864136, 0.3802104592323303, 0.08577539771795273, -0.0002839649678207934, 0.0863855704665184, -0.15155090391635895, -0.2972995340824127, 0.022424668073654175, -0.12316972017288208, -0.020413704216480255, 0.10119197517633438, 0.04969249665737152, -0.2716604769229889, -0.1596546471118927, -0.13417290151119232, -0.02397201396524906, 0.03362680599093437, -0.04488901421427727, -0.045035332441329956, 0.10778574645519257, -0.0014354558661580086, -0.0667790025472641, 0.06165638193488121, -0.025555774569511414, -0.01357300765812397, 0.052551086992025375, -0.13693712651729584, -0.02402304671704769, 0.07933557778596878, -0.006438231095671654, -0.020389890298247337, -0.33004894852638245, -0.0583249032497406, -0.20418767631053925, -0.28863662481307983, -0.01200476847589016, -0.09278326481580734, 0.08305169641971588, -0.1629020720720291, -0.19442684948444366, -0.012455828487873077, 0.046333298087120056, 0.2253667265176773, -0.16769883036613464, 0.013322832062840462, 0.21400418877601624, 0.09123628586530685, -0.2141139805316925, 0.06231575459241867, 0.19076885282993317, 0.045918505638837814, 0.11834867298603058, 0.09022930264472961, -0.05892246589064598, -0.1107347160577774, 0.18961447477340698, -0.0240055862814188, -0.007171228993684053, 0.21797433495521545, 0.10589704662561417, -0.32361772656440735, -0.15736445784568787, 0.054997026920318604, -0.06836040318012238, 0.1808146983385086, 0.07058639824390411, 0.05162651836872101, 0.156067356467247, 0.03595028817653656, -0.1322113573551178, 0.08246971666812897, -0.22448021173477173, -0.177843376994133, 0.13803263008594513, -0.05403788387775421, -0.23087145388126373, 0.11742552369832993, 0.0051194182597100735, -0.012936162762343884, 0.052431266754865646, 0.007430288940668106, 0.27269676327705383, -0.16269685328006744, -0.030409706756472588, -0.10090010613203049, -0.021973060443997383, 0.05765923857688904, -0.18190787732601166, 0.04312178120017052, -0.06968392431735992, 0.12311991304159164, 0.0800698772072792, 0.09228788316249847, 0.09514903277158737, 0.03876041993498802, -0.10306766629219055, -0.022441262379288673, 0.009564478881657124, -0.3321409225463867, -0.1680278480052948, -0.048871345818042755, 0.19940856099128723, 0.09392759948968887, 0.01651635393500328, -0.14809975028038025, 0.1114686131477356, 0.06684881448745728, 0.004413096699863672, -0.1760617047548294, -0.3713451027870178, 0.7270535230636597, 0.1262807995080948, -0.7529836297035217, 0.048872463405132294, 0.12034931778907776, -0.3393501937389374, 0.6934993863105774, -0.9143187403678894, 1.067609429359436, 0.5977986454963684, -0.18526104092597961, -0.3235950767993927, 0.11327250301837921, -0.806384265422821, 0.5214020013809204, -0.19800683856010437, 0.3388664722442627, -0.10815103352069855, 0.05679543316364288, -0.038724884390830994, 0.15965551137924194, -0.2629920542240143, 0.22456474602222443, 0.18665502965450287, 0.17365486919879913, 0.025793537497520447, -0.3071553707122803, -0.20385093986988068, -0.34016135334968567, -0.24260014295578003, 0.20563003420829773, -0.06904960423707962, 0.04821114242076874, 0.04252054542303085, 0.1966681033372879, -0.09723283350467682, -0.12491144239902496, -0.431535542011261, -0.24128614366054535, 0.04622668772935867, -0.02080872654914856, -0.30622753500938416, 0.025084707885980606, 0.38942742347717285, -0.07352128624916077, -0.037071701139211655, -0.00013722344010602683, -0.20415976643562317, 0.040822383016347885, -0.29398229718208313, 0.6025363802909851, 0.10613970458507538, -0.20838391780853271, -0.24783654510974884, -0.31139418482780457, 0.2738867700099945, -0.48389312624931335, 0.2406560778617859, -0.020397989079356194, -0.3091394901275635, 0.08289868384599686, -0.040863439440727234, 0.2989651560783386, -0.47516635060310364, 0.28821292519569397, -0.2540489137172699, -0.643788754940033, 0.2800695598125458, -0.2301076203584671, 0.5173425674438477, 0.5686627626419067, -0.06682360917329788, -0.06681639701128006, -0.07875426858663559, 0.0956074595451355, 0.1854175627231598, 0.058052849024534225, 0.013943692669272423, 0.5032010078430176, -0.26214390993118286, 0.6381062269210815, 0.17297954857349396, 0.043067529797554016, -0.20329031348228455, 0.13108733296394348, 0.06925495713949203, 0.2462185025215149, -0.14898210763931274, -0.19000869989395142, 0.06286091357469559, -0.46292734146118164, -0.2857891619205475, 0.06668467074632645, -0.35437601804733276, -0.319017231464386, -0.0845932587981224, -0.14964659512043, 0.15242788195610046, -0.1939249485731125, -0.08475475758314133, 0.3800806403160095, -0.13386905193328857, -0.17032912373542786, -0.13137540221214294, 0.02427312172949314, 0.2535349130630493, 0.03340460732579231, 0.02555812895298004, 0.23923300206661224, 0.23414486646652222, 0.1723681092262268, 0.17248161137104034, 0.06344398856163025, -0.0008868040167726576, 0.33753493428230286, 0.030228635296225548, 0.11352255940437317, 0.24430644512176514, -0.18223680555820465, 0.18062114715576172, 0.19805435836315155, -0.2770642936229706, 0.007499263156205416, 0.2743362784385681, -0.10293120890855789, -0.08836772292852402, 0.2656802833080292, 0.24985812604427338, -0.0389249362051487, -0.2830444276332855, 0.17925989627838135, 0.104051373898983, 0.011975789442658424, -0.02273302711546421, 0.05740007013082504, 0.14312942326068878, 0.3145904242992401, 0.2562940716743469, 0.026575500145554543, 0.02508256584405899, 0.027258584275841713, -0.25554782152175903, -0.2134414166212082, 0.15290074050426483, -0.1556568592786789, 0.10743217170238495, 0.47696566581726074, 0.11315090209245682, -0.4152988791465759, 0.17190435528755188, -0.3135225772857666, 0.13150982558727264, -0.30567118525505066, 0.27634915709495544, -0.13539472222328186, -0.1260068714618683, 0.09047965705394745, -0.08373073488473892, 0.1957402378320694, -0.14428424835205078, -0.1642989069223404, 0.10284611582756042, 0.0033257349859923124, 0.37171223759651184, -0.08296360820531845, -0.21102683246135712, -0.0759492814540863, 0.09073174744844437, 0.05695784091949463, -0.030837148427963257, -0.11719994246959686, -0.2104867845773697, 0.27700549364089966, -0.12165610492229462, 0.2357965111732483, -0.18598581850528717, 0.036627866327762604, -0.21600690484046936, 0.26373159885406494, -0.2529139518737793, 0.1388951987028122, -0.015069343149662018, 0.2579617202281952, -0.10297658294439316, -0.22859293222427368, 0.05927550792694092, 0.10611160099506378, -0.1701602190732956, 0.039405182003974915, 0.18844737112522125, 0.02542661875486374, 0.10430005192756653, 0.06002165749669075, 0.20704540610313416, 0.046019356697797775, 0.17177759110927582, 0.13940054178237915, 0.18029917776584625, -0.45579221844673157, -0.01425428967922926, -0.2824799418449402, 0.22972840070724487, 0.004783600103110075, -0.2572309970855713, 0.08330437541007996, -0.40171903371810913, -0.6388908624649048, -0.40322062373161316, -0.13190871477127075, -0.32822132110595703, 0.390272855758667, 0.2717966139316559, -0.44549354910850525, -0.14373387396335602, -0.14667397737503052, -0.06451661139726639, -0.5293346643447876, 0.34992697834968567, -0.16575632989406586, -0.25247591733932495, 0.46806246042251587, 0.08217296004295349, -0.14939384162425995, 0.09823095798492432, -0.2033107578754425, 0.041334118694067, 0.066963329911232, 0.010579993017017841, 0.20058339834213257, -0.028437552973628044, 0.03943317383527756, 0.06674538552761078, 0.09081654995679855, -0.24429170787334442, 0.13052760064601898, 0.1778264194726944, -0.24504244327545166, 0.16951508820056915, 0.04047916457056999, 0.20164437592029572, -0.0393139123916626, -0.056077565997838974, -0.08459204435348511, -0.0365404412150383, -0.2168193757534027, -0.4083811938762665, 0.14922799170017242, 0.06765938550233841, 0.13404573500156403, 0.19335255026817322, -0.43520602583885193, 0.04431662708520889, -0.11582532525062561, -0.2675958275794983, -0.24408407509326935, -0.03882092237472534, -0.22050221264362335, -0.32648956775665283, -0.27637073397636414, -0.186176598072052, -0.20085076987743378, -0.27388185262680054, 0.01961197890341282, 0.07598509639501572, 0.3414432108402252, 0.16883307695388794, -0.14930985867977142, -0.13586771488189697, -0.05156392976641655, 0.1154070571064949, 0.23667046427726746, -0.009355329908430576, 0.18859410285949707, -0.013527382165193558, -0.037661515176296234, 0.21547812223434448, 0.13417217135429382, 0.11817001551389694, -0.30841368436813354, -0.17038953304290771, 0.12278258800506592, -0.022418206557631493, 0.12335740029811859, 0.21190790832042694, 0.01229315996170044, -0.16900207102298737, 0.10337988287210464, -0.24039150774478912, -0.1108187660574913, -0.34046679735183716, -0.2859259247779846, 0.10500458627939224, 0.08680810779333115, -0.10867494344711304, -0.08560966700315475, -0.01954471319913864, 0.06349316984415054, 0.06038744002580643, 0.034511297941207886, -0.21710772812366486, -0.10654605180025101, 0.3301597535610199, 0.19185993075370789, 0.05327596515417099, -0.20600298047065735, -0.19491185247898102, -0.015270444564521313, -0.19781211018562317, -0.040435269474983215, 0.15891969203948975, -0.11819128692150116, -0.19216519594192505, 0.02223660796880722, 0.178853377699852, -0.1391119360923767, -0.22700826823711395, -0.15406210720539093, -0.06350436061620712, 0.29394879937171936, 0.10962926596403122, -0.13705240190029144, -0.33629289269447327, -0.08020017296075821, -0.019033262506127357, -0.32319125533103943, -0.05536545813083649, -0.017425931990146637, 0.09675651043653488, -0.01979784481227398, -0.19500495493412018, 0.09833956509828568, 0.2613162398338318, -0.028183622285723686, -0.1734614223241806, -0.04439926519989967, 0.1693907231092453, -0.04174961894750595, -0.17058143019676208, -0.28397268056869507, -0.018129706382751465, 0.08781524002552032, -0.24310383200645447, 0.07674193382263184, -0.10241202265024185, 0.28528261184692383, 0.043567217886447906, 0.04333849623799324, 0.11530698835849762, 0.17994844913482666, 0.2174827754497528, -0.1455383449792862, -0.1994723528623581, -0.3971079885959625, -0.10283280909061432, -0.005244171246886253, -0.10754113644361496, -0.15515123307704926, 0.07510504126548767, -0.08941275626420975, -0.035124458372592926, -0.04061508923768997, 0.006172770168632269, -0.01023116149008274, -0.10943692177534103, 0.024531569331884384, 0.11482255905866623, 0.17228302359580994, 0.19030901789665222, -0.13933639228343964, -0.3733690679073334, 0.04535306245088577, -0.00176202820148319, -0.14013047516345978, -0.3480205237865448, 0.04593747481703758, -0.008569903671741486, -0.06891026347875595, 0.1580779105424881, 0.1217959076166153, 0.08728275448083878, 0.15793542563915253, -0.15374062955379486, -0.08024714142084122, -0.7481324076652527, -0.10873670130968094, 0.011601817794144154, -0.06670170277357101, -0.18259993195533752, -0.581445038318634, -0.20994727313518524, 0.15985733270645142, 0.24016238749027252, -0.057819657027721405, 0.05395931750535965, 0.602740466594696, -0.20547185838222504, 0.3000035881996155, 0.07782179117202759, 0.019807038828730583, -0.04700813069939613, 0.09885837137699127, -0.05671039596199989, -0.1615592986345291, 0.10669014602899551, -0.11668180674314499, -0.03165489435195923, -0.1711527556180954, 0.10447686165571213, 0.21513420343399048, 0.08595941215753555, 0.0331612229347229, 0.12610499560832977, -0.02198794111609459, -0.07221280038356781, -0.00585703132674098, -0.21397072076797485, -0.05663696303963661, 0.033036746084690094, -0.19759267568588257, 0.04408590495586395, 0.03274780884385109, -0.0604480504989624, -0.025524800643324852, -0.1866881400346756, 0.2661620080471039, -0.12765565514564514, -0.07963548600673676, -0.15344472229480743, 0.15265151858329773, 0.003764457767829299, 0.05804111063480377, 0.5596028566360474, 0.22834724187850952, 0.10748322308063507, 0.08797075599431992, -0.01857994683086872, 0.3219412863254547, -0.13474182784557343, -0.07649290561676025, 0.21495996415615082, 0.20455050468444824, 0.5616338849067688, -0.033910710364580154, 0.029365023598074913, -0.0949464663863182, -0.10234574973583221, -0.17861810326576233, 0.2743561863899231, 0.2940070927143097, 0.024482907727360725, 0.06518515944480896, 0.2502520978450775, 0.1875043511390686, 0.223093643784523, 0.019906502217054367, -0.4121863842010498, -0.3952943980693817, -0.23724907636642456, -0.11195335537195206, 0.003446536138653755, -0.07610832154750824, 0.0211371798068285, -0.23881173133850098, -0.21763667464256287, -0.12147978693246841, -0.04289417713880539, -0.1028096005320549, 0.056575387716293335, -0.02240722067654133, 0.07069585472345352, 0.05948355421423912, -0.3294791281223297, -0.10569936782121658, 0.012828383594751358, -0.22634144127368927, -0.1491176038980484, 0.21932774782180786, 0.06952647864818573, 0.22361314296722412, -0.3447251617908478, -0.12009076774120331, 0.11217863112688065, 0.04610496759414673, 0.05584309995174408, -0.4326104521751404, 0.2624090015888214, -0.05014977976679802, 0.01057517807930708, -0.3717156946659088, -0.1254100203514099, 0.10879608243703842, -0.15671607851982117, -0.04176449403166771, -0.05170701444149017, 0.16856977343559265, 0.2631559371948242, -0.07773113995790482, -0.06429186463356018, 0.03931315243244171, 0.0739741325378418, -0.05627024173736572, -0.054934415966272354, -0.33330997824668884, 0.34466713666915894, -0.09790805727243423, -0.10673488676548004, 0.13771454989910126, 0.20304933190345764, -0.030566807836294174, 0.08719083666801453, -0.049416184425354004, -0.1673620492219925, 0.058496490120887756, 0.0018693286692723632, -0.25068995356559753, 0.12544192373752594, -0.007934792898595333, 0.0070834532380104065, -0.050690654665231705, -0.051500774919986725, 0.07867593318223953, -0.09664343297481537, 0.05050835385918617, 0.16491779685020447, -0.12697625160217285, -0.0034650147426873446, -0.0009041180601343513, -0.13817988336086273, 0.06864616274833679, -0.07215362042188644, -0.07322710752487183, -0.18521061539649963, -0.12761202454566956, 0.10896634310483932, 0.06918919831514359, -0.20121659338474274, 0.043801870197057724, -0.0486551895737648, 0.1434551179409027, -0.15277205407619476, -0.0223581213504076, -0.302719384431839, 0.36767569184303284, 0.03943004831671715, -0.0017674397677183151, 0.04195484146475792, 0.021118534728884697, 0.09336869418621063, -0.04306301847100258, -0.06404351443052292, -0.1985301524400711, -0.048021961003541946, -0.07335145026445389, -0.14803287386894226, 0.007142418064177036, 0.11970812827348709, -0.03353721275925636, -0.2173573076725006, -0.16003727912902832, 0.12221785634756088, 0.04225412756204605, 0.13567575812339783, -0.0713176354765892, 0.052303265780210495, -0.14853765070438385, 0.05000396817922592, -0.09349062293767929, -0.07348597049713135, -0.06448694318532944, -0.17817322909832, 0.009045561775565147, 0.041700929403305054, 0.24871128797531128, 0.0664571076631546, 0.029521716758608818, 0.17070014774799347, 0.006256476044654846, 0.10994330793619156, -0.0704260915517807, 0.08219600468873978, 0.1733006238937378, 0.07707624137401581, 0.10285146534442902, 0.13547340035438538, -0.0459040142595768, -0.2382211685180664, 0.0765199139714241, 0.3872605562210083, -0.03923521190881729, 0.2594538927078247, -0.2131628394126892, 0.14278247952461243, -0.03504070267081261, -0.004777079448103905, -0.17828652262687683, 0.02033204957842827, 0.019603099673986435, -0.10967731475830078, 0.08106537163257599, 0.11354129016399384, -0.06601300090551376, 0.1141977533698082, 0.167324036359787, 0.01877656579017639, 0.12949740886688232, 0.15350554883480072, -0.03494526445865631, -0.11235594004392624, -0.1771417111158371, 0.01441950909793377, 0.19155484437942505, -0.22088460624217987, -0.08265984803438187, -0.22395473718643188, 0.17031562328338623, -0.1408805102109909, -0.1166631206870079, 0.20316468179225922, -0.11751901358366013, -0.12191559374332428, -0.1645134836435318, -0.11393381655216217, 0.042933784425258636, 0.0035442630760371685, -0.04292966425418854, 0.000757711473852396, 0.1933569759130478, 0.03094116598367691, -0.010408845730125904, -0.1028723195195198, 0.15678967535495758, 0.03435370698571205, -0.11705972999334335, 0.27095064520835876, 0.05726422369480133, 0.21096502244472504, 0.08991839736700058, 0.16779997944831848, -0.15356215834617615, 0.12661869823932648, 0.13265936076641083, -0.04122323915362358, 0.02250717766582966, 0.056483156979084015, 0.011936675757169724, -0.07046913355588913, 0.06874962151050568, 0.12090658396482468, 0.0024635998997837305, -0.08091286569833755, -0.23983381688594818, -0.11333483457565308, 0.04065532982349396, 0.02759150229394436, -0.029321962967514992, -0.21352943778038025, -0.09265893697738647, -0.004441631957888603, 0.0226199459284544, -0.14785245060920715, 0.07266797125339508, 0.04598262533545494, -0.053187351673841476, -0.04468018561601639, 0.06154671683907509, 0.011741958558559418, 0.09370005130767822, -0.15138939023017883, -0.19033177196979523, -0.023078015074133873, 0.08743473142385483, 0.03943905234336853, 0.0324690081179142, -0.10241463035345078, -0.09980554133653641, -0.06648782640695572, -0.12584634125232697, -0.13911448419094086, -0.19142328202724457, 0.03863414749503136, -0.11428689956665039, 0.0003856972325593233, -0.1494671255350113, 0.003704417496919632, -0.020253382623195648, 0.15736760199069977, -0.08794277161359787, -0.22052213549613953, -0.20147480070590973, -0.07043862342834473, 0.09642467647790909, -0.014732472598552704, 0.003961816430091858, 0.04025885462760925, -0.2524612247943878, -0.006442884914577007, 0.12129218131303787, 0.20656654238700867, 0.029348650947213173, -0.10854128003120422, -0.08808267116546631, -0.13790424168109894, 0.04412253946065903, 0.1769779771566391, -0.051343731582164764, -0.22831355035305023, 0.24933752417564392, -0.010745472274720669, -0.2523990869522095, -0.16056394577026367, 0.11873834580183029, 0.17880879342556, 0.08220741897821426, 0.04028642922639847, 0.0685594379901886, 0.29082316160202026, -0.06698714196681976, -0.028483442962169647, -0.5923571586608887, 0.5550533533096313, -0.05780569463968277, 0.13399051129817963, 0.04238543659448624, -0.017984148114919662, 0.5483172535896301, 0.049554869532585144, 0.05650150403380394, -0.5163314342498779, 0.2861635386943817, 0.029692133888602257, -0.4496654272079468, 0.10173299908638, -0.09372348338365555, -0.19453050196170807, -0.14067821204662323, 0.01813358999788761, -0.07337400317192078, 0.025550145655870438, 0.1836366206407547, -0.10455168783664703, 0.18405316770076752, 0.19053654372692108, 0.5962483286857605, 0.017552321776747704, -0.0008436113130301237, 0.21575842797756195, 0.088141530752182, -0.04762411490082741, -0.328497976064682, 0.1290534883737564, -0.038786325603723526, 0.08997604995965958, -0.19589000940322876, -0.23097451031208038, 0.2911108434200287, -0.07455179840326309, -0.10774800926446915, -0.16759474575519562, 0.044219646602869034, 0.04183521494269371, -0.06828901916742325, 0.13803009688854218, -0.13290856778621674, 0.0858442485332489, -0.12113505601882935, -0.009605348110198975, 0.3018284738063812, -0.22434048354625702, 0.1482398957014084, -0.1215905174612999, -0.2534656226634979, 0.026453275233507156, -0.12577033042907715, -0.04364986717700958, 0.037136439234018326, -0.03071136400103569, 0.04715350270271301, -0.08638793975114822, -0.1777055710554123, -0.28209975361824036, 0.003949882462620735, 0.45232874155044556, 0.3028637766838074, 0.2514989674091339, 0.03382113203406334, 0.13440151512622833, -0.029164999723434448, -0.013043977320194244, -0.0005972438957542181, 0.028856448829174042, -0.17114761471748352, 0.12870706617832184, -0.005034900736063719, -0.024941330775618553, -0.07737143337726593, -0.1381240040063858, 0.07468514889478683, 0.30463337898254395, 0.09832438081502914, 0.11176664382219315, 0.030006490647792816, -0.1632353663444519, 0.17884637415409088, -0.06698409467935562, 0.1309008002281189, -0.01201171986758709, 0.005749870091676712, 0.06602758914232254, 0.09662184864282608, 0.17315471172332764, 0.2797391712665558, 0.19313298165798187, -0.007312085013836622, 0.04869895800948143, -0.08989916741847992, 0.28517550230026245, -0.17053136229515076, 0.16444945335388184, 0.25305551290512085, -0.04782538115978241, -0.09856195747852325, -0.20675811171531677, 0.23143266141414642, -0.07940786331892014, 0.13334475457668304, 0.10754142701625824, -0.20294950902462006, -0.19256772100925446, -0.060164675116539, -0.16721662878990173, -0.2755963206291199, -0.08106444776058197, 0.06850159168243408, -0.11682682484388351, -0.11334753036499023, 0.19104532897472382, 0.040090303868055344, 0.16654983162879944, -0.10856404155492783, -0.3589286506175995, 0.010924940928816795, -0.21041607856750488, -0.09763689339160919, -0.060789112001657486, 0.11311103403568268, -0.15554551780223846, 0.08712555468082428, -0.19355374574661255, -0.2682132124900818, -0.04371415078639984, -0.10192374885082245, 0.06339158117771149, -0.09504616260528564, 0.2935115694999695, -0.01516206655651331, -0.001568999607115984, 0.04968634992837906, -0.0994313582777977, -0.13078832626342773, 0.014609835110604763, 0.1121692955493927, 0.08075875788927078, 0.13738195598125458, -0.03881997987627983, 0.02671639248728752, -0.36957070231437683, -0.07075925916433334, 0.19484393298625946, 0.14668789505958557, 0.06959362328052521, -0.06856054812669754, -0.14254917204380035, -0.033343564718961716, -0.20019127428531647, -0.09837545454502106, -0.11845793575048447, -0.16531723737716675, 0.3887702226638794, 0.1539304107427597, 0.013896294869482517, -0.12326907366514206, 0.14338545501232147, 0.03365136682987213, 0.12020019441843033, 0.07487151026725769, 0.2368537336587906, -0.10634659975767136, 0.16385269165039062, -0.08152759820222855, -0.08670248091220856, 0.13363002240657806, 0.08692958950996399, 0.0053972178138792515, -0.07388332486152649, -0.20258773863315582, -0.04543156176805496, -0.028841720893979073, 0.12336455285549164, 0.11854513734579086, 0.16923460364341736, 0.002075469121336937, 0.221577450633049, 0.128013014793396, 0.12832430005073547, -0.10108141601085663, -0.04479597881436348, 0.15106864273548126, 0.13571248948574066, 0.15658436715602875, 0.018636660650372505, -0.1475825160741806, -0.13065040111541748, -0.048965971916913986, 0.08060315996408463, 0.14072825014591217, -0.1587919145822525, -0.0621953159570694, 0.2572401762008667, 0.019931146875023842, 0.19363239407539368, 0.18955712020397186, 0.004420699551701546, 0.07394220679998398, -0.15325583517551422, 0.16950145363807678, 0.06193456053733826, -0.10796184837818146, 0.03408380225300789, -0.20425890386104584, 0.07619316130876541, 0.31103515625, -0.3119620978832245, -0.02465551719069481, -0.07037091255187988, 0.061586808413267136, 0.1501842439174652, 0.19282126426696777, 0.2100839614868164, -0.08103755116462708, 0.036448992788791656, 0.002692285692319274, 0.015146838501095772, 0.2797471582889557, 0.30473950505256653, -0.06262940913438797, -0.07273887097835541, 0.17881013453006744, 0.04275142028927803, -0.11242761462926865, -0.1701255440711975, -0.05940302088856697, 0.25202372670173645, -0.09309429675340652, -0.02905167080461979, 0.2618468999862671, 0.051953647285699844, -0.021036626771092415, -0.15233156085014343, -0.08039077371358871, -0.006655783858150244, 0.04435340687632561, -0.040970269590616226, -0.28162452578544617, 0.0215313620865345, -0.11991681158542633, 0.05778199061751366, 0.23687586188316345, -0.13401909172534943, -0.02093876339495182, -0.09468343108892441, -0.015347421169281006, 0.10203348100185394, -0.1618727296590805, -0.06426727026700974, 0.13174398243427277, 0.14550921320915222, 0.1144186407327652, 0.018646810203790665, -0.02242681011557579, -0.16506190598011017, 0.02279570885002613, -0.16893529891967773, 0.020370617508888245, 0.17025765776634216, 0.06703514605760574, -0.2076849490404129, 0.30567798018455505, -0.015736838802695274, 0.07725448161363602, 0.03641649708151817, 0.07107005268335342, 0.06447850167751312, 0.006497196853160858, 0.12105836719274521, -0.2925913631916046, 0.006963822990655899, 0.12034837901592255, 0.12093594670295715, 0.12158849090337753, -0.1367969810962677, 0.05986018106341362, 0.24059200286865234, -0.08327163010835648, -0.15154898166656494, -0.1025354340672493, 0.11418188363313675, 0.08061196655035019, 0.30455106496810913, 0.015011049807071686, -0.18556547164916992, -0.18555395305156708, -0.09218420088291168, -0.126135915517807, -0.30890533328056335, -0.048706572502851486, 0.12324007600545883, 0.16703683137893677, 0.47934192419052124, 0.0857870802283287, 0.2330038994550705, -0.11823450773954391, 0.003475705860182643, 0.11703988909721375, -0.21388603746891022, 0.0687476247549057, -0.13086071610450745, -0.6807929873466492, -0.046242691576480865, 0.09513408690690994, -0.47548070549964905, 0.07266034930944443, -0.16115081310272217, -0.02764446847140789, -0.2864317297935486, -0.21652396023273468, 0.10833772271871567, 0.07069680094718933, 0.14107739925384521, -0.1398436427116394, -0.05240859463810921, -0.1466047763824463, 0.138016477227211, -0.24720212817192078, -0.24204328656196594, 0.18238040804862976, -0.1301257461309433, 0.042489971965551376, -0.15296675264835358, 0.247804194688797, 0.19166889786720276, -0.09735284745693207, -0.173906147480011, -0.06559072434902191, 0.2806074023246765, -0.01479767169803381, -0.14940980076789856, -0.10086174309253693, 0.029179338365793228, 0.08902557939291, 0.08260166645050049, -0.16352131962776184, -0.13682742416858673, 0.01457808818668127, 0.30102774500846863, 0.020881280303001404, 0.0400879867374897, 0.23859739303588867, -0.02062373235821724, -0.11970958858728409, 0.028638198971748352, 0.4470060467720032, 0.06879790872335434, 0.7285863161087036, -0.6399403214454651, -0.4164925217628479, 0.027333151549100876, 0.4626089632511139, 0.012147227302193642, 0.054416101425886154, 0.23561803996562958, -1.0453704595565796, 0.37210509181022644, -0.12896302342414856, -1.2176072597503662, 0.21247626841068268, -0.21809835731983185, -0.19737228751182556, -0.3236360549926758, 0.3224259614944458, -0.2603151500225067, 0.20949460566043854, 0.07059107720851898, 0.018030166625976562, -0.08201564103364944, -0.5457926988601685, -0.05702650919556618, -0.13420189917087555, 0.11402736604213715, -0.1089128851890564, -0.015296508558094501, 0.43776145577430725, -0.07660510390996933, -0.48937085270881653, -0.2064572125673294, 0.05816521495580673, -0.271522581577301, 0.03295086696743965, -0.0034295006189495325, 0.34446147084236145, -0.17233383655548096, -0.30444571375846863, 0.13039885461330414, 0.12417492270469666, 0.06330496072769165, -0.14502964913845062, 0.1599455624818802, 0.28983548283576965, 0.26625609397888184, 0.22027379274368286, 0.1529538333415985, -0.06626849621534348, -0.32016605138778687, 0.11847508698701859, 0.006399754900485277, -0.32114508748054504, 0.07481881231069565, 0.5067623853683472, -0.3055720031261444, 0.24370317161083221, -0.19400997459888458, 0.3079313635826111, 0.3651037812232971, -0.23259004950523376, 0.10791119933128357, -0.025350894778966904, 0.05203380063176155, 0.08362778276205063, 0.07854385673999786, 0.5468348264694214, 0.3006711006164551, 0.004696016665548086, -0.1138150542974472, -0.10287059098482132, -0.2960323393344879, 0.016112936660647392, -0.10788892954587936, 0.37696585059165955, 0.023823387920856476, -0.03098984807729721, -0.2853357791900635, 0.35294443368911743, 0.1615179479122162, -0.5862420201301575, -0.15292052924633026, 0.03613509610295296, -0.04346964880824089, -0.07645992934703827, -0.20283275842666626, 0.35138872265815735, 0.36043936014175415, 0.04771583154797554, 0.13940617442131042, -0.2978057265281677, -0.11372511833906174, -0.3396337330341339, -0.2685578465461731, -0.11046892404556274, 0.38344600796699524, 0.22922708094120026, 0.13634826242923737, 0.06849697977304459, 0.17206725478172302, 0.06071603670716286, -0.11890581250190735, 0.08425350487232208, -0.08038288354873657, -0.35747334361076355, 0.31817716360092163, 0.0459456704556942, -0.02910180762410164, -0.3829493224620819, 0.23253558576107025, -0.43166428804397583, -0.27481725811958313, 0.09204699099063873, -0.03516164422035217, -0.2293727546930313, -0.08292444050312042, 0.3337664306163788, -0.04180990532040596, -0.2725324332714081, 0.04471833258867264, -0.06275330483913422, -0.08399352431297302, 0.024963805451989174, 0.03361184522509575, 0.3702285587787628, -0.06980722397565842, -0.22477130591869354, 0.009478291496634483, -0.10224445909261703, -0.024163218215107918, 0.23623619973659515, -0.311320960521698, -0.033189985901117325, 0.39932823181152344, 0.018859611824154854, -0.04371413215994835, 0.06371070444583893, -0.013349310494959354, -0.2920492887496948, 0.17707152664661407, 0.13178084790706635, 0.07453680783510208, -0.31324687600135803, 0.16807587444782257, -0.06703151017427444, 0.1163804829120636, 0.1292950063943863, 0.03150806203484535, -0.2513565123081207, -0.09689763933420181, -0.2448236644268036, 0.12040288746356964, -0.22277618944644928, 0.4221288561820984, 0.1724669337272644, 0.24866849184036255, 0.19550766050815582, -0.22414422035217285, 0.1434374898672104, 0.00893756840378046, 0.2321387678384781, 0.15953420102596283, -0.21478132903575897, 0.30826547741889954, -0.3677358627319336, 0.1810702532529831, -0.2304227501153946, -0.25704875588417053, 0.23068207502365112, 0.01770433597266674, 0.33736535906791687, -0.30052682757377625, 0.27871188521385193, 0.13177211582660675, -0.06566696614027023, 0.46079593896865845, -0.49925047159194946, -0.15174265205860138, -0.2980472147464752, 0.009281892329454422, 0.16444212198257446, -0.32207241654396057, 0.2097351849079132, 0.1980891227722168, -0.19590912759304047, -0.21079760789871216, -0.08397698402404785, 0.15426893532276154, -0.042381368577480316, -0.08293591439723969, 0.19852833449840546, 0.15433791279792786, -0.0851578414440155, 0.2690648138523102, -0.13451537489891052, -0.12156125158071518, -0.1245298758149147, 0.07057811319828033, -0.36707252264022827, 0.2027820199728012, 0.2126884013414383, 0.28464633226394653, -0.13422976434230804, 0.01366281509399414, 0.06117718294262886, -0.09485801309347153, 0.43168705701828003, 0.412456214427948, 0.13201546669006348, 0.21288956701755524, -0.08094076812267303, 0.08081996440887451, -0.22757750749588013, -0.083454430103302, 0.29143962264060974, 0.22925175726413727, -0.4680839478969574, 0.06657172739505768, -0.11313728243112564, -0.034101247787475586, -0.13006067276000977, -0.34174472093582153, 0.007021444384008646, 0.18592001497745514, 0.01499228272587061, 0.34850722551345825, 0.035875335335731506, 0.16436311602592468, -0.07433265447616577, -0.06780225783586502, 0.010432223789393902, 0.39212948083877563, 0.1765262484550476, -0.055987704545259476, -0.28194671869277954, -0.3717763423919678, -0.10900967568159103, 0.1347307562828064, 0.42832860350608826, 0.10938643664121628, 0.052707869559526443, 0.18792419135570526, -0.31233057379722595, -0.3305041790008545, 0.3295646011829376, 0.2230878323316574, -0.14692866802215576, 0.1745723932981491, -0.2838062345981598, 0.08636191487312317, -0.07132019102573395, -0.06525862216949463, -0.08671104907989502, 0.07205469906330109, -0.5077073574066162, 0.05703621730208397, -0.3825104236602783, -0.020179223269224167, -0.15591466426849365, -0.3625788986682892, 0.3969515264034271, 0.10704709589481354, -0.3312719166278839, 0.39250648021698, -0.5056929588317871, 0.14270800352096558, -0.02698267623782158, -0.10903281718492508, 0.25663480162620544, 0.024750132113695145, -0.11571735143661499, 0.09571298211812973, 0.1583656519651413, 0.0009311473113484681, -0.07131107896566391, 0.0323311984539032, 0.0032355845905840397, 0.16781824827194214, -0.3128528594970703, 0.30596235394477844, -0.024785026907920837, -0.061728548258543015, -0.12722930312156677, -0.18736645579338074, -0.09153056889772415, -0.07004983723163605, 0.24820148944854736, 0.049626074731349945, 0.20576509833335876, -0.06048692762851715, 0.11776943504810333, -0.18678754568099976, -0.07777661830186844, -0.0007617470691911876, 0.02610437572002411, 0.043253544718027115, -0.15292899310588837, 0.10989996790885925, -0.09847645461559296, -0.15774409472942352, -0.16719678044319153, -0.03476368635892868, 0.27671945095062256, 0.08036050200462341, 0.08438045531511307, -0.04944877699017525, 0.040910810232162476, 0.30601659417152405, 0.19296753406524658, -0.08629731833934784, 0.05917821079492569, -0.43884697556495667, -0.06363700330257416, 0.020992575213313103, -0.09194844961166382, 0.13798178732395172, 0.06833000481128693, -0.1193048283457756, -0.07008529454469681, -0.08746360242366791, 0.08141167461872101, -0.17490491271018982, -0.11483733355998993, 0.027631502598524094, 0.11942318826913834, -0.1478278636932373, -0.08646184951066971, -0.22536060214042664, 0.0109501201659441, -0.06250941753387451, -0.09371501952409744, -0.07238242030143738, 0.4774421155452728, -0.19695895910263062, 0.032686807215213776, 0.13616439700126648, 0.14547893404960632, 0.6307657361030579, 0.4583779573440552, 0.09232630580663681, -0.3167799115180969, -0.27920427918434143, 0.06602566689252853, 0.18644116818904877, -0.01924022100865841, 0.6368882060050964, 0.0613466277718544, 0.006131403148174286, 0.07066131383180618, 0.41679319739341736, -0.1282452940940857, 0.15176816284656525, -0.07992640882730484, 0.24039076268672943, -0.0291118323802948, -0.03350874409079552, -0.17780618369579315, -0.3504009544849396, 0.15913479030132294, 0.32408180832862854, 0.07273600250482559, -0.01566907949745655, 0.20149244368076324, 0.4203849732875824, 0.0673881471157074, -0.2492683082818985, 0.07281536608934402, -0.23376189172267914, -0.09079551696777344, 0.24378632009029388, -0.13594591617584229, -0.17786966264247894, 0.3493180572986603, 0.3263090252876282, -0.03180290386080742, 0.03017950803041458, 0.2993767261505127, 0.026062708348035812, -0.2802698314189911, -0.5128071904182434, -0.12354697287082672, 0.03766852244734764, -0.3401543200016022, 0.29518502950668335, 0.5488602519035339, -0.6192770004272461, -0.01262614130973816, -0.10510407388210297, 0.09670792520046234, -0.4257276654243469, -0.004862300120294094, 0.339477002620697, 0.09676359593868256, 0.08907662332057953, 0.05226290598511696, 0.22060081362724304, -0.21497608721256256, 0.20968349277973175, 0.028741756454110146, 0.0975232720375061, -0.16500943899154663, -0.06889697164297104, -0.10106077790260315, -0.4219527542591095, 0.06782201677560806, -0.11726123839616776, 0.345883309841156, -0.567659854888916, -0.013231990858912468, -0.16062983870506287, -0.6423940062522888, 0.03936693072319031, 0.23027968406677246, 0.4665530323982239, -0.20653694868087769, 0.06915517151355743, -0.4507525861263275, 0.14784280955791473, 0.17508414387702942, -0.2924269139766693, 0.01880902610719204, -0.05089337378740311, -0.000931376707740128, -0.0038548484444618225, 0.018406258895993233, 0.05272489786148071, 0.08222497254610062, -0.12239958345890045, -0.074578195810318, -0.2603141665458679, -0.3988198935985565, -0.3583236634731293, 0.36244454979896545, 0.1113787516951561, 0.16125915944576263, 0.14272534847259521, 0.3029452860355377, 0.17663028836250305, 0.07520509511232376, 0.17205670475959778, -0.2450830042362213, -0.12595002353191376, -0.08225947618484497, -0.3415302634239197, 0.14407585561275482, 0.02628086879849434, 0.09028001129627228, 0.15233555436134338, 0.16065412759780884, 0.006156943738460541, 0.09894154220819473, -0.06566841900348663, 0.012790856882929802, -0.06583955883979797, -0.056818749755620956, 0.16532953083515167, 0.03030666522681713, 0.054393261671066284, 0.02941313572227955, 0.03138178586959839, 0.12468413263559341, 0.13695310056209564, 0.01233959011733532, 0.011416874825954437, -0.5802785158157349, -0.2963178753852844, 0.18246440589427948, -0.05491034314036369, -0.07479456812143326, -0.20761717855930328, 0.28070855140686035, -0.12639904022216797, -0.04443030431866646, -0.04547842592000961, 0.10731590539216995, 0.16973300278186798, -0.2678242623806, -0.047273438423871994, -0.08229772001504898, 0.2358015775680542, 0.17642247676849365, -0.007584875449538231, 0.16668038070201874, -0.036210279911756516, 0.12867657840251923, -0.042314570397138596, 0.20091350376605988, -0.21212995052337646, 0.05937100946903229, 0.01397520862519741, 0.012791167013347149, -0.08588781207799911, -0.048442017287015915, -0.05163735896348953, 0.2428039014339447, -0.07045076787471771, 0.25327184796333313, -0.043217092752456665, -0.036007195711135864, 0.2731196880340576, 0.17621348798274994, 0.041039131581783295, 0.05890093743801117, -0.21208736300468445, 0.052928850054740906, -0.03768918663263321, 0.036752719432115555, 0.41206979751586914, 0.028416259214282036, -0.10727926343679428, -0.08916650712490082, -0.023581495508551598, -0.17000871896743774, -0.19179877638816833, -0.2464674711227417, 0.06366800516843796, 0.06026814132928848, 0.14592677354812622, 0.07267201691865921, -0.03716675937175751, 0.08180517703294754, -0.09979982674121857, -0.08159521967172623, -0.20767755806446075, 0.32148194313049316, -0.03241878002882004, -0.16578082740306854, 0.16488134860992432, -0.13181433081626892, -0.2749615013599396, -0.0868346318602562, 0.015034512616693974, 0.17063453793525696, -0.2421090453863144, 0.011007968336343765, 0.0110471835359931, 0.0013130161678418517, -0.05108122527599335, 0.25579890608787537, -0.09293173253536224, 0.039616990834474564, -0.13213026523590088, 0.0256502628326416, -0.0497557669878006, 0.08705952018499374, -0.07465305924415588, -0.09510528296232224, -0.07383856922388077, 0.04220472276210785, 0.08079598098993301, 0.026692917570471764, -0.13752231001853943, 0.055314287543296814, -0.14606863260269165, 0.16404977440834045, -0.14030183851718903, 0.12993933260440826, -0.21626286208629608, -0.011649680323898792, 0.001197935314849019, 0.2822239398956299, 0.18134701251983643, 0.15577779710292816, -0.014676989056169987, -0.13027922809123993, -0.28287410736083984, 0.008887320756912231, -0.127596914768219, -0.08978801220655441, 0.2025880068540573, -0.14653483033180237, -0.049716826528310776, 0.2558761537075043, -0.244378000497818, -0.15326310694217682, 0.01802821271121502, -0.16912983357906342, 0.016329005360603333, -0.031752731651067734, -0.2620895206928253, 0.12060453742742538, -0.17161884903907776, 0.025352949276566505, -0.0486283116042614, 0.010892610996961594, 0.030777141451835632, 0.0841100662946701, 0.06760290265083313, -0.08029373735189438, 0.25192201137542725, -0.07232001423835754, 0.12530629336833954, -0.17310167849063873, 0.13861380517482758, 0.13107813894748688, -0.14699769020080566, -0.0827932059764862, 0.06406304985284805, -0.0975952073931694, -0.13166624307632446, 0.13726070523262024, 0.05144418403506279, 0.11863625794649124, 0.03704864904284477, -0.058943863958120346, 